773 100
되다 -0.06327739 0.45016095 0.07886065 0.26638237 0.16065858 -0.8588074 0.14337613 1.0376047 -0.43408555 -0.17559671 -0.26114088 -0.6772724 -0.064116105 0.17184445 0.05813381 -0.33736458 0.042950533 -0.46669194 -0.17324466 -1.05255 0.08354716 0.11247578 0.114301205 -0.3255549 -0.20325518 -0.011031584 -0.5437929 -0.43965578 -0.40193936 0.08646138 0.5509381 0.21846643 0.25800022 -0.15967217 -0.4154905 0.5401094 -0.056813814 -0.59993106 -0.19409882 -0.94902235 0.07330265 -0.42819571 -0.10906 0.116694845 0.33928552 -0.25047493 -0.33714998 -0.0276287 0.32037336 0.15708852 0.3742775 -0.43359515 0.060222093 -0.22066152 -0.17621037 0.19668622 0.22821677 0.0015107874 -0.59652835 0.20983385 -0.023561481 0.11875052 -0.28825223 -0.11974521 -0.6779064 0.3408512 0.3038716 0.3792948 -0.7203654 0.37518394 -0.28795442 -0.023652999 0.39250287 -0.061021414 0.4656512 0.032313164 -0.011482088 -0.30270067 -0.36804497 0.25383335 -0.17582572 -0.07484547 -0.49837917 0.72503144 0.06649444 0.06855552 0.21359773 0.5224187 0.641112 0.13580835 0.63348126 0.32266605 0.05264143 0.22139496 0.7249763 0.4636636 0.19282481 -0.42320117 0.14403062 -0.14231874
회계사 -0.05899003 0.36084986 0.06273028 0.21085967 0.14288874 -0.6839997 0.109551765 0.82363564 -0.34455842 -0.14278595 -0.21423776 -0.5459204 -0.054614402 0.13976914 0.054680046 -0.25959548 0.037505835 -0.36330318 -0.13548025 -0.8284469 0.062880956 0.08084095 0.09408337 -0.26854622 -0.15893693 -0.004018216 -0.43598467 -0.34855026 -0.31345478 0.07825977 0.45210233 0.1677457 0.19682497 -0.12552679 -0.3245516 0.43264863 -0.043451592 -0.46508476 -0.14431953 -0.74031276 0.07342673 -0.3503833 -0.088641234 0.09623094 0.26700804 -0.19113293 -0.2569612 -0.030470861 0.25169152 0.11944971 0.31271923 -0.35871547 0.05125735 -0.17340244 -0.14750698 0.16865768 0.18697484 0.01381323 -0.47244114 0.16796888 -0.026394533 0.097368866 -0.23055969 -0.09446824 -0.5329996 0.2751759 0.25074074 0.29169112 -0.562275 0.3032995 -0.23675303 -0.03533954 0.31908643 -0.034637675 0.3657524 0.016709378 -0.023007363 -0.24233533 -0.2847851 0.20380312 -0.14845598 -0.058914494 -0.39603883 0.5631056 0.058937404 0.051287584 0.16492368 0.4075834 0.5137073 0.0964568 0.5029654 0.25341606 0.04129744 0.16768168 0.56500536 0.3667568 0.16676156 -0.3324372 0.10304834 -0.11285702
없다 -0.051041104 0.37413728 0.05281594 0.21049258 0.14815478 -0.69429415 0.11061717 0.84984195 -0.36196232 -0.13524134 -0.22627227 -0.5594789 -0.040857628 0.13756245 0.059407096 -0.28269687 0.038270973 -0.37410545 -0.14362106 -0.8633801 0.055228572 0.084159605 0.084420405 -0.2767477 -0.16430023 -0.011225946 -0.43742424 -0.36092854 -0.32937628 0.078283 0.46463606 0.17145312 0.19673339 -0.12790516 -0.34900856 0.44562858 -0.05381621 -0.48567414 -0.15938284 -0.7789931 0.062194847 -0.35519248 -0.0837044 0.106526196 0.28315008 -0.20189515 -0.26996493 -0.032843944 0.25535762 0.120069616 0.31661728 -0.3643331 0.046338737 -0.19009456 -0.16082387 0.15968415 0.18153758 0.0022634824 -0.49487075 0.16165783 -0.013817679 0.09272267 -0.22510232 -0.09154469 -0.56443286 0.28857273 0.25864127 0.31317794 -0.599114 0.3140618 -0.23773162 -0.021539265 0.32869235 -0.040870283 0.37663183 0.03386008 -0.0067173275 -0.24482656 -0.30373034 0.21506351 -0.14282964 -0.07217058 -0.42323434 0.59153074 0.06038656 0.04950599 0.16601117 0.42572942 0.5396187 0.106459156 0.5155845 0.27056715 0.0499141 0.17820044 0.5964282 0.38267133 0.17304805 -0.3421606 0.12600301 -0.13045265
다 -0.05315298 0.33433965 0.05246101 0.18336974 0.12652524 -0.61803746 0.100941665 0.74752617 -0.3022476 -0.13160652 -0.18442087 -0.4815366 -0.03939511 0.112400845 0.055139855 -0.24371453 0.037691824 -0.34143302 -0.12622215 -0.7438838 0.057214104 0.07506594 0.087265484 -0.22466582 -0.16151711 -0.0031095727 -0.38428614 -0.31619596 -0.28045493 0.06530461 0.40182248 0.15296346 0.17151049 -0.11102662 -0.2928561 0.3988987 -0.037409317 -0.43376917 -0.15045281 -0.6699165 0.0622167 -0.30574873 -0.06567463 0.08437156 0.25143403 -0.17767926 -0.23411293 -0.029524587 0.22386019 0.10452518 0.28020915 -0.31583676 0.03693641 -0.1695096 -0.13938768 0.14498816 0.1625397 0.01601064 -0.4212 0.14013767 -0.015214129 0.09024034 -0.19665332 -0.08206618 -0.48195246 0.2382612 0.21878622 0.27721646 -0.51972955 0.25971082 -0.20614733 -0.027483784 0.28190818 -0.026850926 0.32843143 0.018107884 -0.019863442 -0.20968682 -0.26868337 0.19201319 -0.13124588 -0.05029933 -0.35806632 0.5198733 0.050904024 0.045514405 0.15861867 0.38413605 0.46078143 0.08315536 0.44729504 0.22984909 0.034221005 0.1560917 0.5245872 0.32968074 0.1516651 -0.3070995 0.0995432 -0.11291498
사람 -0.0552189 0.34680757 0.048480574 0.19482328 0.13474093 -0.64755946 0.106866196 0.79107004 -0.33344215 -0.12539087 -0.21263297 -0.51276875 -0.054025453 0.12870242 0.042878162 -0.26076198 0.027672835 -0.3518067 -0.11996443 -0.8036582 0.059186123 0.07447101 0.0905416 -0.24001026 -0.16349998 -0.004942552 -0.41385955 -0.3351103 -0.30957794 0.06992348 0.43475878 0.16923425 0.19176625 -0.1259088 -0.30797482 0.40957436 -0.05356366 -0.45150554 -0.1505226 -0.7225296 0.06504906 -0.3382951 -0.08657817 0.1024176 0.2670759 -0.1988512 -0.24935172 -0.028557168 0.24636512 0.10618634 0.2972519 -0.3311971 0.05853964 -0.17414813 -0.14325157 0.14626059 0.16116406 -0.0026416657 -0.4547851 0.14725973 -0.011785566 0.08437038 -0.21493661 -0.08489754 -0.5219631 0.25817916 0.2442783 0.29546118 -0.5553302 0.29668427 -0.23058228 -0.019295517 0.2989873 -0.03607199 0.35658485 0.031734243 -0.016769206 -0.22306126 -0.27289137 0.19135214 -0.14249022 -0.06707866 -0.3830722 0.54793495 0.048236903 0.042894915 0.16748007 0.40611634 0.48434746 0.09439688 0.4872256 0.24205148 0.043201435 0.16526265 0.5494807 0.343327 0.16206905 -0.31427062 0.10990809 -0.11101706
가다 -0.052449085 0.3174624 0.05036663 0.17052396 0.109467626 -0.59953254 0.1002896 0.72461605 -0.30673328 -0.12832569 -0.1933716 -0.47539568 -0.04946942 0.10602032 0.041581124 -0.24309032 0.021641629 -0.33373326 -0.11815427 -0.7318835 0.043902427 0.074587755 0.08391663 -0.22072597 -0.15371248 -0.009244468 -0.3758324 -0.32008567 -0.27347296 0.06997673 0.39578143 0.14435567 0.16936809 -0.11447361 -0.28953442 0.38824788 -0.039204456 -0.411941 -0.13180225 -0.66525334 0.06695214 -0.31017435 -0.07773331 0.08208317 0.23774716 -0.17849238 -0.23179083 -0.018615393 0.22081879 0.10208252 0.270502 -0.31492126 0.052705817 -0.14579979 -0.13963512 0.14324288 0.16588913 -0.0021075231 -0.42217016 0.1335617 -0.007016703 0.0819614 -0.18897639 -0.08764062 -0.46930808 0.23951744 0.21424481 0.2635572 -0.50988245 0.2534151 -0.20338279 -0.016926272 0.28345004 -0.030794337 0.32123798 0.029676719 -0.02214892 -0.20821635 -0.25653097 0.18725145 -0.11543555 -0.061814703 -0.3471776 0.4928231 0.04986389 0.038340192 0.13996135 0.37808233 0.4479375 0.09298087 0.45106518 0.23396558 0.02622947 0.15183102 0.51035583 0.32595447 0.14098571 -0.30013454 0.10271839 -0.110818915
대체 -0.03278804 0.2897142 0.046658184 0.17005028 0.11041935 -0.55769616 0.09564149 0.67434114 -0.28308788 -0.11453914 -0.1696355 -0.44007573 -0.04005261 0.117725044 0.03618383 -0.2217351 0.035818305 -0.30034947 -0.1055485 -0.6911614 0.051392116 0.06750462 0.07973243 -0.21113227 -0.1358016 -0.0033210497 -0.3553448 -0.29423165 -0.2570653 0.057368856 0.37238213 0.15160191 0.16191484 -0.094962224 -0.2767647 0.35569388 -0.04883042 -0.39770225 -0.13351202 -0.62623113 0.061368577 -0.28882712 -0.057013225 0.07282568 0.22562027 -0.15321176 -0.2216984 -0.03372856 0.20113753 0.09321303 0.2509247 -0.29437953 0.03293273 -0.1415895 -0.1304104 0.12109154 0.14448707 -0.0034189667 -0.3951312 0.12174581 -0.015101112 0.072839916 -0.17758137 -0.07194377 -0.44486392 0.22692107 0.19267415 0.23993413 -0.47638875 0.23921299 -0.19371063 -0.015041369 0.2549078 -0.027990881 0.3079128 0.012848642 -0.009791092 -0.19072804 -0.24218787 0.17774916 -0.10777092 -0.05729176 -0.33571067 0.47188044 0.045568444 0.038243536 0.14456452 0.33868703 0.41390657 0.08463971 0.40969598 0.21099967 0.028445695 0.14427702 0.46526554 0.3000069 0.14038508 -0.27736664 0.09153377 -0.09293528
보다 -0.036993906 0.3246455 0.0617892 0.19614056 0.119571246 -0.62140507 0.10423012 0.74666595 -0.31825018 -0.13235542 -0.19751225 -0.49356407 -0.03913016 0.117219836 0.046177253 -0.24308914 0.033951174 -0.33998907 -0.12658285 -0.7686496 0.055627313 0.08516902 0.08029077 -0.24685758 -0.16063912 0.00090797746 -0.3994016 -0.31827253 -0.2932628 0.07460953 0.4001376 0.16205966 0.17961565 -0.11814131 -0.30530262 0.39419392 -0.053531867 -0.4344624 -0.14906281 -0.6863771 0.06911494 -0.3179105 -0.07392224 0.09217388 0.25608128 -0.18928409 -0.24784936 -0.03040514 0.23889764 0.10779102 0.27060533 -0.32175 0.05713885 -0.16921319 -0.13993157 0.15662298 0.15324989 0.009333656 -0.43163812 0.15287581 -0.0074848644 0.084076606 -0.21048066 -0.073493525 -0.49083194 0.25327638 0.2125309 0.28188255 -0.52578014 0.26596257 -0.21070659 -0.024111085 0.2921351 -0.040621866 0.3315143 0.025417527 -0.0050179134 -0.22556348 -0.26400203 0.18335491 -0.13465656 -0.0577347 -0.37567183 0.5273029 0.05432427 0.046384394 0.1559962 0.39384264 0.47848624 0.09179725 0.46293953 0.23067078 0.028662229 0.16851571 0.5195495 0.33330485 0.14612214 -0.30765674 0.10791171 -0.11358967
아니다 -0.060022548 0.36835417 0.061286215 0.2144404 0.14242515 -0.6770484 0.11904843 0.81469023 -0.34847048 -0.13285679 -0.21021482 -0.5447324 -0.037992034 0.12754355 0.060332127 -0.26628867 0.025627784 -0.37415424 -0.1383623 -0.8334607 0.061696153 0.095272824 0.095637746 -0.26669794 -0.1639017 -0.003936903 -0.43416533 -0.36306062 -0.31087545 0.06411521 0.45043737 0.16727515 0.20339347 -0.11062159 -0.33005974 0.4368506 -0.053767 -0.46633217 -0.15192981 -0.7620177 0.062389802 -0.3404429 -0.079731725 0.09527701 0.26917788 -0.20211457 -0.26203743 -0.025866536 0.24715795 0.113215454 0.3050436 -0.3494552 0.05105046 -0.18113907 -0.14255226 0.15779367 0.18010151 0.0075121312 -0.46627435 0.15309004 -0.02461805 0.08927078 -0.21636999 -0.09147756 -0.54853487 0.2699418 0.23796432 0.30346236 -0.5818808 0.30080298 -0.24383275 -0.02570275 0.31980628 -0.03337464 0.35798314 0.018053351 -0.02276669 -0.24878842 -0.30074957 0.2062312 -0.14054775 -0.06892246 -0.39398077 0.5738927 0.06305999 0.05453625 0.16526896 0.41256535 0.51072466 0.10665963 0.4981774 0.2571357 0.04199296 0.1749721 0.5796814 0.37353432 0.1645355 -0.32385188 0.11971203 -0.1247241
직업 -0.043126915 0.26698503 0.036542665 0.1645919 0.10175231 -0.5254848 0.07967806 0.63170457 -0.2635474 -0.10813523 -0.16161805 -0.41437912 -0.037860602 0.101269685 0.035637945 -0.19527055 0.028550413 -0.29457903 -0.09330887 -0.64109844 0.047815602 0.06999456 0.05983027 -0.19933397 -0.11913737 -0.009125329 -0.33684504 -0.26046196 -0.24134958 0.05010511 0.34826314 0.13666439 0.15538658 -0.08264532 -0.2604473 0.33520046 -0.03691427 -0.35757077 -0.117995724 -0.57063675 0.05534735 -0.25747833 -0.06403898 0.068669766 0.20677185 -0.14914408 -0.20298648 -0.016112821 0.19457783 0.09747367 0.23553108 -0.2577676 0.03771749 -0.12647593 -0.10964217 0.11359374 0.13193348 0.0025241182 -0.35578448 0.12094881 -0.0164028 0.07988881 -0.16300242 -0.0698714 -0.4165492 0.20127584 0.18023942 0.21795917 -0.4353563 0.22236753 -0.17610471 -0.014076089 0.23592083 -0.040780783 0.2814876 0.012400993 -0.009098048 -0.18731977 -0.21526249 0.16092098 -0.102565974 -0.05064102 -0.30839437 0.44496953 0.04569234 0.03516779 0.11774095 0.3213881 0.39797774 0.084196664 0.3746821 0.20442541 0.033684872 0.14282039 0.44439232 0.27103662 0.11333768 -0.2471953 0.09553122 -0.08677244
이다 -0.03916807 0.32967424 0.061830536 0.17947993 0.11706836 -0.63393563 0.096628174 0.76139593 -0.31838906 -0.13510035 -0.18929505 -0.50101465 -0.035098556 0.11680741 0.05062886 -0.24127787 0.031723537 -0.34691903 -0.11794398 -0.7745633 0.053434476 0.07655655 0.08663802 -0.24291041 -0.16038556 -0.0012987255 -0.39827126 -0.3306606 -0.28146344 0.07047134 0.40617406 0.16037194 0.19150855 -0.103890516 -0.29808924 0.4039921 -0.04564687 -0.43946034 -0.14995368 -0.69560975 0.05897154 -0.3185659 -0.08025895 0.09664332 0.24307007 -0.19215445 -0.24469155 -0.029113874 0.22371016 0.10911201 0.27665117 -0.3234858 0.040041372 -0.16055651 -0.13261166 0.1481482 0.1587631 0.004497817 -0.42909458 0.15094914 -0.025369298 0.08381137 -0.20551334 -0.080525115 -0.50604624 0.25384855 0.21404132 0.26628232 -0.5231277 0.27070212 -0.2114905 -0.014193434 0.2853146 -0.028196106 0.340399 0.032308716 -0.00865003 -0.2315049 -0.27105394 0.1990772 -0.122461565 -0.048949327 -0.36274275 0.53593034 0.043998424 0.053087685 0.1462146 0.38987964 0.47913536 0.10009709 0.47018713 0.2377181 0.0351679 0.16793777 0.5192993 0.3367374 0.1586698 -0.31076506 0.108586535 -0.11809167
더 -0.036977183 0.3476537 0.055896804 0.19835165 0.12960905 -0.64783853 0.1007108 0.77984196 -0.3264009 -0.13344334 -0.19706431 -0.5053511 -0.046327718 0.12038187 0.053269878 -0.257436 0.027572088 -0.35758665 -0.12781282 -0.7919197 0.053290743 0.07277177 0.08250749 -0.2536707 -0.16725607 -0.0140797775 -0.41399693 -0.3271772 -0.29116353 0.06809893 0.41653103 0.15618438 0.18662418 -0.1138717 -0.31054708 0.4081587 -0.04839474 -0.44683823 -0.1541715 -0.7158195 0.052424613 -0.3261999 -0.07356454 0.09846833 0.25322425 -0.19172995 -0.23855995 -0.027495662 0.23429213 0.11887869 0.29074177 -0.33475387 0.054967187 -0.16143759 -0.14557627 0.15151912 0.16900156 0.012643481 -0.44695434 0.14819935 -0.014480918 0.089551404 -0.21212584 -0.08639733 -0.5141142 0.26184902 0.23650882 0.28852487 -0.54839647 0.2835956 -0.22496636 -0.014939442 0.2983984 -0.033674132 0.3474232 0.0300357 -0.020392478 -0.21817635 -0.27680486 0.19251458 -0.13383992 -0.0479888 -0.38433957 0.537597 0.061450142 0.05066254 0.14958741 0.3898197 0.49391222 0.10260921 0.47918665 0.2382338 0.027297908 0.17013669 0.54447746 0.3386948 0.14350766 -0.31578714 0.101834364 -0.11524798
만 -0.049517624 0.33798182 0.06487739 0.18630293 0.13474971 -0.64332485 0.10243237 0.7924889 -0.31621528 -0.13637948 -0.2109063 -0.5213826 -0.053325176 0.12294425 0.04184008 -0.26416782 0.031397454 -0.3525601 -0.11832406 -0.7972192 0.05355409 0.083098516 0.081920944 -0.24027932 -0.1603034 0.0008999832 -0.42119625 -0.32983047 -0.30007955 0.07794794 0.41762567 0.16706137 0.18993619 -0.115566544 -0.32028815 0.4034524 -0.057542823 -0.4607755 -0.14694014 -0.7189084 0.060867306 -0.32203108 -0.078637235 0.09113535 0.24967963 -0.20104684 -0.24146329 -0.03496541 0.23394288 0.11712547 0.29853585 -0.3404084 0.04999757 -0.17376566 -0.13898298 0.1485323 0.16633064 0.007901682 -0.44300443 0.15895872 -0.026360927 0.08419363 -0.20808923 -0.08382493 -0.519697 0.25819558 0.24196747 0.2827208 -0.5564351 0.28599176 -0.21734555 -0.018893426 0.3034687 -0.044525363 0.34971625 0.023521129 -0.010244671 -0.23790914 -0.28672796 0.19986394 -0.14217259 -0.053655073 -0.3840279 0.5569223 0.04940829 0.04997271 0.16553754 0.39691412 0.48491186 0.10082119 0.48437044 0.24196427 0.04360097 0.16092934 0.54835653 0.34976512 0.16317832 -0.30998737 0.11499718 -0.105911046
하고 -0.0574121 0.35305396 0.04776542 0.19312023 0.12519474 -0.65391034 0.095835246 0.7754461 -0.3306941 -0.13294083 -0.21031041 -0.50831485 -0.05483423 0.1212819 0.058353357 -0.2484011 0.0377804 -0.3510146 -0.1253317 -0.79993373 0.06345586 0.084546976 0.0895216 -0.24203701 -0.15150239 0.001969544 -0.42295015 -0.34516695 -0.29633203 0.075603865 0.4310217 0.17071186 0.19723612 -0.12004653 -0.3083311 0.40912902 -0.05929417 -0.4431273 -0.1469944 -0.721243 0.060087524 -0.33327806 -0.071569726 0.09699228 0.25576842 -0.19905327 -0.25540352 -0.029500952 0.2467514 0.10919924 0.29129314 -0.3336426 0.041590836 -0.16628031 -0.14254802 0.15690356 0.1753991 0.005344447 -0.45489475 0.16095725 -0.011406203 0.09689514 -0.21167842 -0.07745095 -0.5068643 0.25686347 0.24067178 0.28804207 -0.54123646 0.2826183 -0.22527069 -0.029633138 0.2913083 -0.036141712 0.35967514 0.03234601 -0.016931418 -0.22379287 -0.2750504 0.19488797 -0.13139224 -0.06485988 -0.37534222 0.55133677 0.058086704 0.05539513 0.16618621 0.40801024 0.48988706 0.08991379 0.48904675 0.2521884 0.039184768 0.1673801 0.53901374 0.34457436 0.16261949 -0.32009774 0.10174658 -0.10359182
안 -0.029420389 0.27840164 0.044629656 0.14542845 0.109872945 -0.51345354 0.08734651 0.61971444 -0.24568194 -0.11205473 -0.1510966 -0.41234234 -0.043272067 0.089256324 0.03153632 -0.19272597 0.033633593 -0.28184187 -0.09509038 -0.6252637 0.054135833 0.06965834 0.0641857 -0.1979388 -0.132825 0.00013322431 -0.32202706 -0.26747957 -0.22573711 0.050341956 0.32385144 0.12781523 0.14831594 -0.09730059 -0.25226453 0.3148771 -0.030145008 -0.34729338 -0.11608223 -0.5562553 0.057041023 -0.2592084 -0.052082922 0.07623627 0.20718442 -0.14311469 -0.20210782 -0.02454757 0.18897672 0.09147011 0.2323267 -0.2571414 0.042781897 -0.1408787 -0.11333835 0.112036325 0.14364614 0.01021826 -0.3534524 0.12362423 -0.021146642 0.06378268 -0.16588171 -0.060710445 -0.39970013 0.20872137 0.18066272 0.22039834 -0.42926037 0.2190572 -0.18132319 -0.027809815 0.24142702 -0.031979427 0.27341822 0.011033992 -0.002852282 -0.17897329 -0.2164973 0.1592533 -0.11190085 -0.044371337 -0.29647133 0.42063707 0.048387066 0.042421754 0.13129376 0.31921655 0.38143346 0.069324695 0.38504928 0.19331382 0.034579735 0.13915357 0.42867485 0.26684415 0.12047018 -0.23958047 0.07858982 -0.07923948
수 -0.05423883 0.3404132 0.056439865 0.19955492 0.12194569 -0.6401561 0.0961598 0.7703874 -0.32409388 -0.119520046 -0.2053594 -0.5123283 -0.04964464 0.1308554 0.039718095 -0.2551652 0.023300186 -0.34077758 -0.11941026 -0.77396715 0.052576415 0.08574221 0.07397536 -0.24491034 -0.16236354 -0.0072098374 -0.40558204 -0.32272732 -0.29145727 0.058573395 0.4095569 0.15434445 0.18756053 -0.10342347 -0.31433094 0.41302326 -0.038936675 -0.4504235 -0.15427345 -0.69430226 0.07028017 -0.32789528 -0.08167976 0.09773832 0.25640035 -0.17930906 -0.25376952 -0.03762506 0.23649965 0.09930822 0.28008988 -0.33091465 0.05796931 -0.15532386 -0.14027205 0.15692064 0.17508072 0.00324531 -0.4324314 0.15698999 -0.014107412 0.08409661 -0.21643041 -0.087223575 -0.49530682 0.24571957 0.22456911 0.2874405 -0.53201246 0.28512532 -0.22616099 -0.025451703 0.29903984 -0.04346851 0.3511478 0.032393217 -0.014776886 -0.22630388 -0.27349266 0.189497 -0.13936853 -0.058908556 -0.37754324 0.54019564 0.046453495 0.05546142 0.14678442 0.38397187 0.4893642 0.10536404 0.46752262 0.24290311 0.031192547 0.15608555 0.5269111 0.34809038 0.1584142 -0.29996082 0.11348658 -0.104536735
시대 -0.0369783 0.26357153 0.049146514 0.1548096 0.10988495 -0.51423115 0.08027315 0.63180727 -0.25854802 -0.104490034 -0.16796996 -0.4182609 -0.043735992 0.10907263 0.02884591 -0.19400485 0.01471556 -0.28228468 -0.10191412 -0.6408345 0.054320347 0.07205653 0.06755054 -0.19292602 -0.12651114 0.0046029957 -0.32099134 -0.2802578 -0.24285267 0.052707665 0.33975232 0.1273597 0.15124035 -0.10041432 -0.24815221 0.334158 -0.03458503 -0.36301047 -0.12614262 -0.5816353 0.049743194 -0.27040586 -0.06741456 0.07999412 0.2140029 -0.15039043 -0.2079471 -0.028425558 0.19948971 0.0930117 0.22674926 -0.27375412 0.039556623 -0.13025479 -0.109699495 0.12569916 0.13030273 -0.005157622 -0.36643186 0.12113482 -0.008406768 0.07641068 -0.16986239 -0.063571565 -0.40987092 0.20846485 0.17503071 0.2338109 -0.42887303 0.23128721 -0.1707567 -0.011124943 0.23972876 -0.033344667 0.28031498 0.009894425 -0.0029419295 -0.189686 -0.21263367 0.15454417 -0.10548713 -0.05574107 -0.31479147 0.42744952 0.03492029 0.040819325 0.1178727 0.3144404 0.38538483 0.074012116 0.38943338 0.19986749 0.038769748 0.14139463 0.42704457 0.28518927 0.11344373 -0.25465655 0.07919492 -0.086824395
못 -0.042086452 0.32170975 0.053699754 0.17189659 0.1271942 -0.5990377 0.10427044 0.72002 -0.3025501 -0.12508908 -0.19202627 -0.47673398 -0.0322764 0.111989066 0.05269927 -0.24442472 0.030134907 -0.32634306 -0.10706624 -0.73511726 0.06046014 0.0697877 0.06879833 -0.23216869 -0.14960557 -0.008365595 -0.38047075 -0.3174424 -0.2731185 0.062799044 0.38652736 0.1551042 0.16520402 -0.10950038 -0.28273737 0.38704574 -0.05600174 -0.4061394 -0.13060665 -0.6617435 0.06621121 -0.31051195 -0.062463865 0.09072261 0.23763305 -0.18091881 -0.23459694 -0.029574266 0.22116922 0.103927605 0.2744057 -0.29532814 0.05359727 -0.15808672 -0.11987034 0.13936108 0.16096488 0.007997338 -0.4133539 0.14320302 -0.020087138 0.07723796 -0.20553252 -0.07618284 -0.46447843 0.23699738 0.2138032 0.26348627 -0.49244338 0.25210246 -0.20224412 -0.029265426 0.27783188 -0.026627026 0.32825905 0.029306473 -0.0048905136 -0.2033449 -0.24756482 0.1914363 -0.12706852 -0.0449179 -0.3453052 0.49760354 0.05851343 0.051807057 0.15349127 0.36984035 0.45946407 0.09104629 0.44945273 0.22760749 0.041218203 0.1509973 0.50497764 0.32627136 0.13837346 -0.29189628 0.10303909 -0.11140862
뽑다 -0.026678305 0.26178595 0.036532372 0.1592128 0.10933675 -0.5222708 0.08602764 0.6322277 -0.2671046 -0.110398725 -0.16754673 -0.41378298 -0.034629732 0.10968671 0.04600086 -0.20255858 0.026671983 -0.27330607 -0.091008134 -0.62431455 0.051667385 0.057094 0.060637068 -0.20316833 -0.11968281 -0.007035936 -0.33779186 -0.2615101 -0.22810657 0.051563215 0.3464628 0.13157438 0.14661749 -0.0931097 -0.24991368 0.32410327 -0.036130816 -0.35346377 -0.109442204 -0.58133096 0.0468791 -0.26670837 -0.05236084 0.07908804 0.20066851 -0.15044203 -0.20594415 -0.02265716 0.20130555 0.08578989 0.22643135 -0.27483305 0.035357013 -0.1347149 -0.106937476 0.13179849 0.13137998 0.008086799 -0.348551 0.123987935 -0.0113240685 0.0822333 -0.16179505 -0.058980588 -0.41477248 0.21598499 0.19066384 0.23593313 -0.43701497 0.22945274 -0.17112948 -0.0242609 0.24584684 -0.028802168 0.2893844 0.015305717 -0.014695723 -0.17659506 -0.23034146 0.15025347 -0.112788215 -0.048301656 -0.30712572 0.44274366 0.05384156 0.03944888 0.12714769 0.32124883 0.38836354 0.06891599 0.39099813 0.19006573 0.035541397 0.1447181 0.43641257 0.2794469 0.12671246 -0.25383085 0.089887954 -0.090047084
않다 -0.04473187 0.36923 0.06064177 0.21338855 0.12801144 -0.6795822 0.11955315 0.8249395 -0.3435504 -0.14454018 -0.21571933 -0.54244226 -0.040048696 0.13289253 0.05438732 -0.26961866 0.04016609 -0.38127998 -0.13902852 -0.84298885 0.058744177 0.09176464 0.07859432 -0.26602376 -0.17793868 -0.0009107319 -0.43884036 -0.3674595 -0.31218567 0.08188385 0.44595563 0.16965377 0.20272644 -0.12269526 -0.34304482 0.4458406 -0.059975237 -0.48362863 -0.1599858 -0.76648194 0.068549626 -0.33858502 -0.07610228 0.10645209 0.27196395 -0.20204867 -0.26799423 -0.03885115 0.25714764 0.1200199 0.2988601 -0.35812205 0.042816944 -0.18392259 -0.14462723 0.17126428 0.18431911 0.009201834 -0.4699045 0.16025382 -0.019213704 0.086654395 -0.22879046 -0.09409608 -0.54422957 0.28058898 0.23852658 0.29701352 -0.585773 0.2971548 -0.23958443 -0.02420912 0.32111073 -0.046643525 0.36636886 0.027163828 -0.00925043 -0.23813038 -0.29779252 0.20642784 -0.14748941 -0.06309383 -0.4033169 0.5796502 0.066168614 0.05038188 0.16650175 0.4183864 0.51813126 0.09561915 0.507421 0.26073244 0.031039268 0.18795507 0.5666727 0.35974362 0.15500964 -0.32761616 0.12052955 -0.11131104
지금 -0.038992234 0.30135632 0.04624053 0.1810681 0.115896255 -0.5640982 0.089890815 0.6865301 -0.27869153 -0.115563445 -0.17655694 -0.45134237 -0.03417302 0.113745116 0.04457779 -0.22963613 0.021676496 -0.30701774 -0.11558598 -0.69457704 0.049907554 0.075172365 0.06279805 -0.20836382 -0.14130439 -0.0100238575 -0.35727498 -0.29839867 -0.26913854 0.05535294 0.37040874 0.13601382 0.16573349 -0.09783579 -0.27887216 0.3639105 -0.041513816 -0.38607222 -0.12844764 -0.62797093 0.05724592 -0.2902864 -0.075222604 0.08940413 0.2239323 -0.17749536 -0.2265132 -0.029023224 0.21427788 0.10223038 0.2621089 -0.29870823 0.04365406 -0.15066153 -0.12873816 0.14046831 0.15283456 0.0019323905 -0.40342158 0.12771592 -0.015208412 0.08649164 -0.18290098 -0.08389073 -0.46062124 0.2332489 0.20082301 0.24498801 -0.47332153 0.24292283 -0.19059485 -0.021992886 0.25504488 -0.035088155 0.3134398 0.031057045 -0.01122338 -0.19598705 -0.24888104 0.1737372 -0.12173746 -0.05047955 -0.33675474 0.4751239 0.041415516 0.054444745 0.14096047 0.3481855 0.42556712 0.093886465 0.4134593 0.21715842 0.03338563 0.15651974 0.48308605 0.30240938 0.13734886 -0.27829605 0.085785694 -0.10256344
고 -0.04342222 0.32827654 0.06234059 0.19274206 0.11329504 -0.602248 0.09170689 0.7338917 -0.30564544 -0.11633478 -0.1876138 -0.4773429 -0.032684006 0.117835574 0.038708024 -0.24658304 0.035636775 -0.33909383 -0.12008054 -0.7408441 0.052163456 0.0705083 0.07446269 -0.23164192 -0.1480118 0.00016009217 -0.3926415 -0.31441495 -0.27287844 0.06675032 0.40393418 0.15084562 0.18420045 -0.115804315 -0.29194644 0.37840754 -0.05021022 -0.4336793 -0.14092584 -0.6802085 0.055212904 -0.30822697 -0.06867575 0.0849982 0.23423113 -0.18543212 -0.23449683 -0.030699577 0.2152711 0.10364907 0.2801129 -0.30762634 0.035776533 -0.15450136 -0.13841292 0.13451795 0.15995757 0.005464075 -0.43025038 0.13674605 -0.018811967 0.091662444 -0.21071987 -0.07271257 -0.4827933 0.2434875 0.22753003 0.27141783 -0.5164117 0.27070755 -0.20619275 -0.01708043 0.28143752 -0.04097338 0.33017993 0.016890587 -0.012183428 -0.21047291 -0.25579894 0.19644372 -0.13271558 -0.060516383 -0.35346267 0.5143024 0.044915505 0.049105927 0.15025958 0.37338883 0.45494875 0.09731272 0.46053278 0.22219858 0.034820244 0.15615162 0.50397575 0.32576123 0.13985986 -0.28736013 0.096032076 -0.103235975
적 -0.047576234 0.34998876 0.058408555 0.20695888 0.13048604 -0.65830344 0.10322051 0.79086876 -0.3308878 -0.13979769 -0.21308315 -0.5239844 -0.03958689 0.1301834 0.055655804 -0.25032225 0.024631757 -0.35428417 -0.11662062 -0.7956725 0.061425228 0.08824651 0.0727655 -0.24039194 -0.15358919 0.0018556439 -0.4233436 -0.33417144 -0.29293576 0.067416966 0.4202189 0.17156322 0.18355943 -0.12166002 -0.31322396 0.4239529 -0.04087005 -0.45969623 -0.15865435 -0.71354806 0.06865683 -0.33512405 -0.08544738 0.087705515 0.2553719 -0.19595431 -0.2521232 -0.029141564 0.23751001 0.10632232 0.30323774 -0.3411295 0.04140748 -0.16105944 -0.13953802 0.16309461 0.16599923 -0.0016679061 -0.45393258 0.15169968 -0.026648374 0.08953547 -0.21358848 -0.07863631 -0.5101059 0.26206303 0.22928718 0.28363043 -0.55341923 0.29276913 -0.2318976 -0.021772657 0.29962572 -0.045971602 0.34575966 0.02886486 -0.024070406 -0.2315585 -0.27617016 0.20914154 -0.14150974 -0.056053437 -0.37565744 0.542005 0.05159325 0.0564689 0.16348508 0.40542644 0.500853 0.09847038 0.4849792 0.24431817 0.030360384 0.17287315 0.54978245 0.3418753 0.15379052 -0.31873372 0.108277276 -0.10488336
임 -0.034115788 0.2203125 0.04395676 0.121823244 0.076842 -0.4307684 0.06074467 0.51822233 -0.21327 -0.08890586 -0.14112909 -0.3400153 -0.030993761 0.08637376 0.039514493 -0.16243131 0.029112766 -0.24343652 -0.07275176 -0.52577597 0.04713097 0.0559996 0.058308136 -0.17324989 -0.115313984 0.0046932907 -0.27543026 -0.22034755 -0.19085576 0.045001816 0.28972974 0.10801579 0.115079515 -0.08371196 -0.20870781 0.26369786 -0.025376325 -0.29546598 -0.10673353 -0.4663266 0.05022846 -0.21116018 -0.043655712 0.05116006 0.1715325 -0.13518725 -0.16908248 -0.018712997 0.1582513 0.07529549 0.1951496 -0.21815342 0.037614748 -0.102815 -0.09886783 0.10906958 0.11838893 0.014008402 -0.2928139 0.09747295 -0.014845158 0.05828883 -0.14391907 -0.04660869 -0.33861133 0.17431186 0.15635985 0.17866287 -0.35380006 0.19605471 -0.14897527 -0.013708729 0.19149178 -0.03169636 0.23969243 0.012355558 -0.0026020228 -0.15050632 -0.18593119 0.13481139 -0.09266749 -0.040899232 -0.25095144 0.3661027 0.034738727 0.033447485 0.09500073 0.27420402 0.31407705 0.07193229 0.32122305 0.15425965 0.019226374 0.10336536 0.35432097 0.23725277 0.11160847 -0.20682369 0.07225412 -0.0650359
세상 -0.04287971 0.26819727 0.04633615 0.14696732 0.09161754 -0.5186991 0.091673754 0.62027895 -0.26106206 -0.11090421 -0.1590869 -0.40033883 -0.035805915 0.10085223 0.032783963 -0.19598407 0.025217855 -0.27016586 -0.10816917 -0.62881804 0.035998244 0.06392021 0.057105586 -0.18954515 -0.13101976 -0.0109239 -0.31814206 -0.2740939 -0.23347023 0.04674008 0.3432056 0.13892487 0.15019439 -0.08533126 -0.24263129 0.31831682 -0.029538622 -0.3658291 -0.10840654 -0.5613333 0.045740902 -0.26221225 -0.050842527 0.06712102 0.21150517 -0.15630344 -0.18874408 -0.023462625 0.19733135 0.08521241 0.23454231 -0.25314733 0.040482003 -0.13007878 -0.104802415 0.12860733 0.14297652 0.013721516 -0.34742185 0.12786742 -0.0041329404 0.07009833 -0.16984673 -0.065367624 -0.40402937 0.20227985 0.1732268 0.21321826 -0.43115562 0.23248343 -0.17831598 -0.02638447 0.24104702 -0.029140547 0.2769205 0.02267491 -0.0073214206 -0.17539975 -0.21690977 0.15754183 -0.09514539 -0.043085888 -0.30581996 0.43563163 0.04785254 0.042834654 0.11946896 0.317592 0.39202395 0.08456215 0.3784879 0.18381813 0.03027167 0.13253252 0.43072438 0.26518852 0.1311485 -0.25563538 0.091158524 -0.0997749
취업 -0.023795808 0.25212464 0.040828597 0.13584927 0.09159058 -0.46065333 0.06812562 0.5627705 -0.22940724 -0.08929481 -0.15377577 -0.35821074 -0.03232029 0.089097254 0.024518775 -0.17757097 0.028299892 -0.24547122 -0.09634759 -0.57263327 0.034653388 0.05800882 0.049410924 -0.18626662 -0.11530754 -0.0036172145 -0.30294243 -0.24549454 -0.21108362 0.05574096 0.30327156 0.11614776 0.12655045 -0.08969542 -0.22495234 0.30088165 -0.029500972 -0.32377076 -0.10356788 -0.5207526 0.043334752 -0.2385088 -0.0472616 0.063187994 0.17903946 -0.14641808 -0.18096751 -0.028251657 0.16936566 0.075259484 0.2052702 -0.24109918 0.02599004 -0.12091831 -0.097472 0.10510391 0.11289542 0.0017057221 -0.330992 0.10755178 -0.006326423 0.060888454 -0.15022685 -0.055796504 -0.3572383 0.18940014 0.17499487 0.19149122 -0.39742398 0.19468412 -0.16627303 -0.025742548 0.20482156 -0.030812882 0.250547 0.012991422 -0.018849393 -0.15932906 -0.19725327 0.14820395 -0.087282464 -0.034377087 -0.27298012 0.39299363 0.033466488 0.038538385 0.11608731 0.29548174 0.34575313 0.073467754 0.33549494 0.17152633 0.035097346 0.115502656 0.38608992 0.23841578 0.09994417 -0.21507733 0.07167647 -0.07519786
이제 -0.039855126 0.23161541 0.030246273 0.1410786 0.094667956 -0.43792868 0.07962357 0.53421676 -0.23222108 -0.080544055 -0.14517379 -0.34300575 -0.024970444 0.084733136 0.025127886 -0.17605586 0.027289124 -0.25019628 -0.083405554 -0.5497463 0.04895065 0.053114478 0.06564509 -0.17557791 -0.11923217 -0.013617029 -0.28565276 -0.22554328 -0.20435189 0.055328008 0.29323167 0.11664818 0.13234396 -0.07056091 -0.21760759 0.28910768 -0.0438044 -0.3061617 -0.1019794 -0.49065214 0.05017817 -0.2281867 -0.054420844 0.063154794 0.1756423 -0.13441867 -0.16551206 -0.026042314 0.17130703 0.0755778 0.20198165 -0.22498569 0.03262925 -0.11314951 -0.09962842 0.10974182 0.1168344 0.0009310813 -0.31689915 0.09415357 -0.011515913 0.05583688 -0.14881518 -0.063155144 -0.36013237 0.17750154 0.16492176 0.19218464 -0.3805293 0.1976518 -0.1535013 -0.022451822 0.20371372 -0.027513258 0.23624866 0.0065370477 -0.0021732824 -0.15296763 -0.19280477 0.14353247 -0.0911235 -0.032510445 -0.26295304 0.3819767 0.03746718 0.028946506 0.102334216 0.283463 0.33540955 0.06815642 0.33627898 0.16043761 0.024047228 0.106913015 0.36464432 0.22970633 0.109670855 -0.21294113 0.0798435 -0.07527258
진짜 -0.030996317 0.24488278 0.036060687 0.13942493 0.098794445 -0.4530071 0.07963706 0.5394816 -0.2213184 -0.08606162 -0.13753979 -0.3702797 -0.031556718 0.09158309 0.027418604 -0.18502013 0.027556954 -0.25447595 -0.09278013 -0.5456236 0.0327236 0.06548828 0.058089502 -0.16896766 -0.11390827 -0.010000139 -0.29719254 -0.2366774 -0.213488 0.044244383 0.3045287 0.10768346 0.12551665 -0.08553581 -0.22645652 0.27894002 -0.035519946 -0.3066185 -0.09513726 -0.5069807 0.03502799 -0.23182862 -0.062259994 0.059007924 0.1744095 -0.13062514 -0.18273093 -0.018435797 0.1700955 0.08369316 0.20085631 -0.24256168 0.03984849 -0.123920634 -0.09256342 0.10943457 0.12797582 0.0068153115 -0.31679982 0.11354591 -0.018365974 0.053237144 -0.1469222 -0.06208746 -0.36360547 0.178559 0.1513479 0.1984256 -0.38212746 0.1957907 -0.15327306 -0.0127866985 0.21605231 -0.034998845 0.2393117 0.0072410326 -0.019520748 -0.16448264 -0.1950857 0.13085264 -0.09866603 -0.043338478 -0.26087287 0.3833259 0.04749575 0.027039584 0.10539165 0.2789652 0.35217384 0.06953336 0.33712217 0.17190501 0.029730888 0.10817443 0.38304436 0.24948414 0.11323237 -0.21655284 0.06802576 -0.08373665
인간 -0.0268091 0.25351137 0.03135008 0.14870888 0.08983514 -0.47428843 0.082931206 0.57466024 -0.2383056 -0.09117852 -0.1557197 -0.38089567 -0.024114618 0.10275719 0.026108477 -0.1811628 0.031985324 -0.26553553 -0.09035901 -0.59045887 0.05139139 0.060366236 0.06622617 -0.17395948 -0.11394094 -0.011632638 -0.30767608 -0.24909854 -0.21872967 0.053744655 0.32417163 0.12698558 0.1501625 -0.09454775 -0.23882678 0.3077205 -0.03316037 -0.33576027 -0.11669991 -0.5349627 0.037502035 -0.23370564 -0.053055014 0.05992981 0.19445372 -0.1376408 -0.19089295 -0.026230766 0.17869696 0.09240884 0.20605439 -0.24681099 0.029676389 -0.12517388 -0.101487 0.10910172 0.12326757 0.0050556543 -0.34082004 0.12093243 -0.0076611117 0.057743873 -0.16127823 -0.059672598 -0.38967726 0.18386582 0.16291687 0.20434007 -0.39512363 0.21769872 -0.16207477 -0.026747819 0.2276318 -0.024107728 0.25969428 0.008338435 -0.0133185955 -0.16970414 -0.21315625 0.15004276 -0.09810931 -0.05055676 -0.2918907 0.41152176 0.033191532 0.031788554 0.12243393 0.2964527 0.35977694 0.06759241 0.3546956 0.18684107 0.021723375 0.1187949 0.39802387 0.25426817 0.1062534 -0.2451343 0.087860614 -0.075921305
그렇다 -0.04172273 0.26294935 0.041648567 0.1516033 0.112340905 -0.5123806 0.07635627 0.6183387 -0.2689548 -0.102226324 -0.16644973 -0.41080508 -0.031099066 0.107334375 0.042754173 -0.20982522 0.030736033 -0.29283023 -0.10604129 -0.6372478 0.044005148 0.06611455 0.060214534 -0.19547218 -0.117353916 0.002109997 -0.32811564 -0.25889102 -0.23567075 0.052110653 0.32997432 0.13780814 0.14074901 -0.092957884 -0.24213389 0.32559153 -0.03795438 -0.36606222 -0.112661384 -0.5638326 0.040215597 -0.26428795 -0.052388743 0.076100945 0.204799 -0.1511418 -0.209394 -0.012420103 0.18792248 0.08415166 0.23457772 -0.2638899 0.033048928 -0.12867686 -0.11415778 0.114601985 0.14217351 0.011960283 -0.34901863 0.1220639 -0.012559034 0.064251885 -0.16653112 -0.058945935 -0.40868318 0.20288599 0.18074027 0.22561814 -0.4417041 0.23128143 -0.17641307 -0.010412485 0.23113526 -0.03585023 0.27247795 0.011837565 -0.008987187 -0.17710058 -0.21969673 0.16188848 -0.1149103 -0.048127305 -0.3110242 0.4369319 0.04119446 0.049510945 0.12155533 0.3250089 0.39286304 0.07895304 0.38141623 0.20270942 0.032797955 0.14297758 0.43544933 0.2823574 0.1270373 -0.25900164 0.079728305 -0.08963893
생각 -0.03968327 0.2933035 0.047693063 0.17414759 0.10586763 -0.54997534 0.0960645 0.66660386 -0.27236724 -0.10678281 -0.17504738 -0.4441828 -0.03567848 0.09712924 0.038422894 -0.22586395 0.025583042 -0.30890784 -0.09858762 -0.6778542 0.058903247 0.06091134 0.06471582 -0.20844872 -0.13806698 -0.004122745 -0.35366678 -0.28801176 -0.25895545 0.047698367 0.36650866 0.14101736 0.16734783 -0.10608865 -0.2630542 0.3406668 -0.03489094 -0.37793306 -0.1321711 -0.60124177 0.047770858 -0.28807655 -0.0628907 0.08153614 0.21035396 -0.17154412 -0.20424624 -0.021853128 0.20450069 0.096965425 0.24457197 -0.28125104 0.04377345 -0.13248987 -0.12557106 0.13267657 0.15112755 -0.001827689 -0.3921748 0.13813634 -0.007464068 0.07246343 -0.17754272 -0.07189828 -0.44140378 0.21794301 0.19202106 0.24770235 -0.4625543 0.23258407 -0.18991883 -0.023933753 0.26072013 -0.034721866 0.30511302 0.022665912 -0.016253907 -0.18629153 -0.23276432 0.16515549 -0.11893612 -0.052727398 -0.33023316 0.46760976 0.037319712 0.03748256 0.13703033 0.34011707 0.4222388 0.07901339 0.40724716 0.21013924 0.03739887 0.14478602 0.47151718 0.29903242 0.123535104 -0.2704977 0.0836303 -0.102352254
그냥 -0.037809845 0.2434686 0.050174143 0.14637372 0.0939952 -0.48483223 0.06742515 0.56793046 -0.2312062 -0.0994242 -0.1470086 -0.3840709 -0.023651093 0.09653224 0.03702782 -0.19239703 0.024095774 -0.26543716 -0.0847336 -0.58055085 0.04420303 0.064183526 0.064166635 -0.18944666 -0.108548276 -0.0022808397 -0.31026924 -0.24092509 -0.22166705 0.05908765 0.31186652 0.1295063 0.14218736 -0.0894508 -0.23637716 0.31372508 -0.03575181 -0.34003687 -0.109099306 -0.53235126 0.047431715 -0.2506073 -0.048708145 0.06923739 0.19850998 -0.13632824 -0.18982892 -0.017890219 0.17622747 0.0728615 0.22312377 -0.23579276 0.045897365 -0.12807816 -0.11214706 0.11696457 0.11739688 0.013386297 -0.33034185 0.118342444 -0.0066446722 0.0666531 -0.16154955 -0.061876047 -0.36958638 0.18282154 0.16978538 0.20651671 -0.39850855 0.21668464 -0.16832969 -0.014904923 0.2158458 -0.025602587 0.26674762 0.02120709 -0.015723525 -0.17232782 -0.19734296 0.15653858 -0.09221433 -0.047309402 -0.28414783 0.39716655 0.035855155 0.04121951 0.10989227 0.28932884 0.36938038 0.08164154 0.36255908 0.18161415 0.018635547 0.11687764 0.402852 0.24750203 0.10677489 -0.2320011 0.07692417 -0.092954844
때문 -0.03525296 0.2930239 0.040909793 0.1706634 0.1161314 -0.5733886 0.08641517 0.69737285 -0.27910694 -0.12276835 -0.17044306 -0.44624054 -0.047796737 0.10907362 0.046754796 -0.21829292 0.023103483 -0.3208599 -0.105319336 -0.70893437 0.045431778 0.070776954 0.07752271 -0.2245882 -0.1349874 -0.0062579205 -0.36074385 -0.29145524 -0.26135108 0.068551086 0.37409952 0.13818933 0.1763809 -0.10738531 -0.27262148 0.36046782 -0.050940417 -0.4057561 -0.12698536 -0.6346744 0.056809183 -0.2992248 -0.07130019 0.07511957 0.236211 -0.17741731 -0.21651377 -0.025575574 0.21161605 0.10753944 0.25405958 -0.30148432 0.043504294 -0.14098069 -0.11523659 0.13111849 0.15244673 0.011785255 -0.40369514 0.14175373 -0.021089084 0.08194351 -0.18583897 -0.07038875 -0.45853367 0.22981144 0.21285553 0.25980186 -0.49152228 0.25686902 -0.19252658 -0.023817774 0.27309498 -0.038592584 0.3082263 0.014265365 -0.016292527 -0.20214176 -0.24847017 0.17056866 -0.11059386 -0.056908187 -0.3445703 0.4896352 0.05813778 0.04858799 0.1393377 0.35455593 0.4311792 0.09324496 0.4172109 0.21674061 0.037720364 0.14622462 0.4811874 0.31130442 0.14568937 -0.2765952 0.10496702 -0.106246
없어지다 -0.02741045 0.23289406 0.03335581 0.1360101 0.08493769 -0.45501912 0.07596279 0.5502649 -0.23205152 -0.09952778 -0.14541656 -0.34759513 -0.04167263 0.09682039 0.0327818 -0.17411865 0.019678501 -0.251798 -0.08309415 -0.54313636 0.03298974 0.055607088 0.059106834 -0.16686346 -0.10323969 -0.008353115 -0.27750954 -0.23922664 -0.20881422 0.057109773 0.29902107 0.10536256 0.12911202 -0.0887021 -0.21973734 0.29109088 -0.041239075 -0.307049 -0.09651635 -0.5003698 0.033939604 -0.23036219 -0.055181798 0.06828978 0.18727353 -0.1297814 -0.17538159 -0.01686955 0.15931624 0.07591643 0.20030181 -0.22130483 0.028058399 -0.12396676 -0.09507845 0.10900583 0.110472314 -0.0012731537 -0.31414717 0.102513075 -0.02103739 0.0571499 -0.15157284 -0.052076053 -0.35428163 0.18068032 0.16073231 0.19337079 -0.375269 0.19709861 -0.14836857 -0.017825862 0.19810292 -0.026193608 0.25235 0.010837168 -0.015796209 -0.16146764 -0.18398786 0.13711128 -0.08246916 -0.049639538 -0.25595155 0.36819062 0.048226137 0.037350968 0.11223728 0.2707123 0.34807724 0.07405378 0.32643926 0.15960342 0.034055743 0.11081081 0.36612454 0.24330157 0.10163965 -0.22655825 0.08524626 -0.080586545
많다 -0.035606455 0.24543202 0.035418652 0.13781612 0.08898821 -0.47745872 0.067450896 0.5795347 -0.23076925 -0.09880193 -0.14662018 -0.3818592 -0.025720285 0.09990929 0.035941586 -0.19346651 0.018926375 -0.25370774 -0.0946575 -0.5737835 0.051604807 0.06409271 0.054420326 -0.17503087 -0.11907954 -0.010909042 -0.29307783 -0.2556385 -0.21855843 0.048581045 0.30030525 0.11977247 0.14312287 -0.08904941 -0.2362684 0.30640006 -0.03877326 -0.33696005 -0.10775342 -0.5231728 0.053127047 -0.2386131 -0.04725337 0.056373786 0.19191462 -0.13286644 -0.18095398 -0.0237831 0.17654775 0.08013684 0.20399068 -0.24996664 0.036529 -0.124623 -0.09253853 0.11073038 0.12999345 0.00672228 -0.3200135 0.10158792 -0.00936538 0.06388873 -0.15451181 -0.06268066 -0.38083652 0.19707939 0.16596521 0.2083121 -0.40458837 0.21078432 -0.1522592 -0.019263763 0.2248144 -0.028636917 0.26304027 0.026978914 -0.010921558 -0.16878517 -0.21265216 0.15503393 -0.09958058 -0.04106612 -0.2806517 0.40676704 0.04839536 0.038540155 0.11737172 0.29808637 0.35898924 0.07750222 0.34989867 0.17595226 0.033091146 0.11971398 0.39329466 0.26258275 0.10298881 -0.2335831 0.07576632 -0.07668731
공부 -0.025098318 0.233119 0.044684384 0.1359202 0.08175663 -0.4557056 0.07162811 0.5431512 -0.22831061 -0.096833944 -0.1365576 -0.3502299 -0.03386971 0.09131737 0.032811478 -0.1795846 0.014373553 -0.24691127 -0.083418176 -0.5471794 0.047170267 0.06104969 0.06208403 -0.18123536 -0.112867095 -0.010531351 -0.28072578 -0.22856319 -0.21336928 0.048797347 0.30238387 0.117060035 0.13305631 -0.087471634 -0.2101237 0.28094548 -0.040568218 -0.32257593 -0.10993981 -0.5056878 0.034079988 -0.22871293 -0.056924663 0.06181903 0.18681164 -0.1300592 -0.17436154 -0.020677643 0.17721665 0.078432046 0.20848414 -0.22395682 0.024272442 -0.12667264 -0.08872639 0.109991975 0.11764412 0.0094612865 -0.31915078 0.10008199 -0.020343777 0.069924176 -0.15358746 -0.0678737 -0.36613417 0.18633561 0.15955992 0.19245243 -0.3841477 0.19679345 -0.16006953 -0.01955713 0.21412924 -0.026226785 0.24068856 0.019417461 -0.0047346465 -0.1697996 -0.20230879 0.14589222 -0.10239978 -0.040366706 -0.27675912 0.3912155 0.034033082 0.029246239 0.10806772 0.2783691 0.35011297 0.07815863 0.33498517 0.17329782 0.030974299 0.11718162 0.37472385 0.24338852 0.11038162 -0.21265575 0.07274234 -0.09015907
자격증 -0.027540725 0.24501301 0.03114343 0.13388889 0.08351015 -0.43789068 0.08212123 0.53612244 -0.21890996 -0.08359628 -0.13600399 -0.36134985 -0.028491966 0.08428574 0.031241307 -0.17016247 0.018808441 -0.23324578 -0.08635126 -0.54275614 0.037107565 0.047537036 0.04639031 -0.16504395 -0.11644519 -0.0015572899 -0.2797562 -0.23885085 -0.20768884 0.04108977 0.2818633 0.11247156 0.13939922 -0.085482106 -0.22039676 0.29127795 -0.024468547 -0.29951647 -0.111345574 -0.48706803 0.036426537 -0.21844554 -0.046077598 0.06028416 0.18428943 -0.13939637 -0.16806139 -0.014896982 0.1705836 0.08291461 0.19739598 -0.22488241 0.027222281 -0.12234788 -0.0937054 0.09503136 0.116105184 0.005497398 -0.3009722 0.097295254 -0.014506999 0.05760877 -0.1528506 -0.059876468 -0.34781152 0.17216556 0.15726945 0.20413911 -0.3766227 0.1912623 -0.14558452 -0.015883965 0.20481332 -0.01730038 0.24816677 0.019082636 -0.006541185 -0.16022146 -0.1823017 0.14248212 -0.09706144 -0.04697021 -0.263065 0.36655813 0.041410472 0.025550555 0.1061209 0.2775103 0.33952293 0.07006896 0.31962308 0.17069961 0.031603537 0.119549744 0.38081032 0.24083364 0.11232736 -0.2076944 0.0736406 -0.07923932
인데 -0.033643946 0.2515434 0.047395904 0.14277378 0.09445588 -0.49164996 0.0873405 0.59390473 -0.24786554 -0.102082826 -0.15660633 -0.39062932 -0.039363116 0.09055727 0.036839098 -0.1884215 0.024424067 -0.26139718 -0.09399479 -0.6020373 0.036028635 0.06754562 0.068742976 -0.1930113 -0.11604758 0.0052476157 -0.3177453 -0.2582969 -0.23490182 0.054543205 0.31610146 0.12669624 0.15201499 -0.095815994 -0.24698147 0.3132827 -0.045398407 -0.35060865 -0.12113805 -0.54245085 0.04628212 -0.24752176 -0.059126545 0.07914175 0.20443104 -0.15071791 -0.18076952 -0.030277561 0.17999525 0.087376945 0.22012307 -0.2564534 0.03713057 -0.1257962 -0.1154786 0.11089393 0.120655514 0.008567573 -0.3419057 0.10763283 -0.0068238256 0.06823696 -0.1608826 -0.059247833 -0.39320225 0.20284404 0.16762163 0.21132684 -0.4201797 0.21646832 -0.17581567 -0.009545729 0.23216534 -0.037738133 0.27110106 0.024386695 -0.019035904 -0.16907093 -0.21776204 0.15966439 -0.096328504 -0.044986133 -0.29812548 0.4114074 0.041156933 0.0398677 0.12750468 0.29993135 0.3619157 0.06486088 0.361765 0.18535954 0.02817162 0.12586434 0.4190834 0.2631616 0.12310241 -0.23521964 0.0743654 -0.088074364
자다 -0.044511132 0.25436935 0.03862932 0.15516263 0.09792558 -0.48433673 0.07634565 0.59050643 -0.2434411 -0.09738866 -0.15631403 -0.39345515 -0.040743418 0.099380255 0.028188882 -0.20397195 0.0139540825 -0.26197827 -0.09116419 -0.596389 0.054006778 0.05473945 0.065958895 -0.1861143 -0.1153407 -0.008716754 -0.30478075 -0.26360363 -0.22027983 0.05887818 0.3226715 0.13118339 0.15044218 -0.086335525 -0.23199748 0.31619892 -0.039683115 -0.33749664 -0.108764276 -0.55003333 0.049521167 -0.2509475 -0.052663498 0.064419575 0.19168806 -0.14748111 -0.18719526 -0.028807022 0.19024543 0.081269525 0.22862731 -0.25062168 0.044019066 -0.13245957 -0.11049121 0.119391166 0.12665713 0.010591784 -0.34953406 0.118389085 -0.013292376 0.06833747 -0.16176514 -0.06774606 -0.39598122 0.18697843 0.17943151 0.22101873 -0.42204309 0.22606437 -0.16593397 -0.024532318 0.22639541 -0.02599669 0.2598666 0.020280816 -0.0055593555 -0.16792414 -0.20660293 0.15585247 -0.1040401 -0.050828118 -0.28369716 0.409013 0.039379746 0.035732955 0.12666272 0.29933745 0.37652487 0.07641193 0.3612501 0.17768534 0.02006369 0.13163033 0.40463325 0.27110827 0.11426874 -0.25002846 0.07708046 -0.07836392
들다 -0.034036197 0.2424834 0.028877521 0.12581158 0.083112255 -0.44530654 0.06467119 0.5289618 -0.23363999 -0.09054919 -0.13365841 -0.36168128 -0.03707019 0.08797085 0.036370456 -0.18465722 0.029197933 -0.25257376 -0.08203214 -0.53588665 0.04497549 0.06220989 0.06507935 -0.16670716 -0.115944155 0.0014401708 -0.29206258 -0.23820366 -0.19931784 0.0390301 0.28558367 0.11064031 0.13371272 -0.074407235 -0.2145494 0.28847325 -0.036455885 -0.30686808 -0.10814741 -0.496121 0.036045052 -0.2258528 -0.04793518 0.067889646 0.1725314 -0.12938602 -0.1648206 -0.024678286 0.1612378 0.07590723 0.19620262 -0.22126326 0.04121603 -0.10577052 -0.08831791 0.09663048 0.11669193 -0.003591384 -0.3160572 0.09545949 -0.00847176 0.062047765 -0.15545441 -0.05067516 -0.35316652 0.17765161 0.15598093 0.19155528 -0.37941927 0.2026379 -0.15082227 -0.021969609 0.21071759 -0.026415238 0.23873101 0.024676278 -0.014618316 -0.15114288 -0.19522843 0.12988512 -0.095978685 -0.045250036 -0.26410267 0.37455428 0.04324592 0.04057051 0.10643561 0.27947006 0.33405373 0.067802615 0.32921895 0.16604048 0.020952784 0.11148273 0.37433863 0.24092738 0.09634483 -0.21151367 0.072525956 -0.08099108
인 -0.041994922 0.2679236 0.039877724 0.14577654 0.10130325 -0.52335817 0.078032106 0.6146322 -0.24889189 -0.1054966 -0.17033796 -0.40238035 -0.04425557 0.09755809 0.04100155 -0.21020377 0.015393974 -0.2888544 -0.09093799 -0.6206613 0.050958093 0.0679007 0.06898238 -0.20127095 -0.11609015 0.0019228682 -0.32250872 -0.25923237 -0.24505696 0.055173304 0.3454445 0.13016778 0.14391123 -0.0939687 -0.2526333 0.32589602 -0.04083206 -0.3526722 -0.11874347 -0.56609946 0.045195542 -0.2524216 -0.06810511 0.06373094 0.20069036 -0.15965648 -0.20422567 -0.022383546 0.19241756 0.09083138 0.23720607 -0.26701772 0.040338583 -0.13308233 -0.10438974 0.13009836 0.1325834 0.0052746627 -0.36470702 0.11556459 -0.021070074 0.07154558 -0.17590325 -0.072143994 -0.40715674 0.20797366 0.17486103 0.2271513 -0.42890325 0.23004217 -0.18067476 -0.009906368 0.2476327 -0.031667996 0.2791457 0.008623034 -0.016483217 -0.18266538 -0.21691903 0.15922517 -0.11429361 -0.041182972 -0.31232092 0.44317117 0.049935523 0.03356467 0.12737934 0.32590526 0.38259244 0.071218036 0.39016783 0.19607808 0.03992124 0.12362775 0.43165982 0.2845918 0.12112319 -0.2532956 0.07896374 -0.09648556
오다 -0.03965945 0.23966089 0.035944033 0.12305751 0.09557163 -0.440161 0.069247745 0.52785796 -0.21779978 -0.093046956 -0.13820401 -0.34909678 -0.021368453 0.09242152 0.03301603 -0.17801785 0.023769382 -0.238437 -0.091135465 -0.54054964 0.036019333 0.0572455 0.04708455 -0.1721227 -0.09837882 -0.0074934973 -0.26964778 -0.22687073 -0.20736083 0.041026156 0.28557286 0.116706595 0.12158153 -0.083907284 -0.21834026 0.28520992 -0.036132406 -0.30128363 -0.10192751 -0.49176446 0.041326694 -0.22212435 -0.04796129 0.053230863 0.16710493 -0.13550158 -0.16638236 -0.022722818 0.16246204 0.079940684 0.20023571 -0.22249304 0.030140972 -0.112591855 -0.10009184 0.09668754 0.12355282 0.00016808059 -0.31377506 0.10660762 -0.0025727972 0.06013104 -0.14330514 -0.061962813 -0.3510364 0.16492176 0.1489225 0.18252759 -0.37386864 0.20006867 -0.14056644 -0.018093398 0.20195493 -0.01859575 0.2378506 0.011661346 -0.00645657 -0.15297353 -0.19109143 0.12951066 -0.080190234 -0.03169765 -0.26620284 0.36233315 0.03797539 0.034659628 0.09768874 0.28014195 0.3239751 0.071445376 0.33318228 0.1665305 0.029598286 0.11049139 0.35581842 0.23551732 0.102681465 -0.2232928 0.0797991 -0.08317146
나오다 -0.029416231 0.2436977 0.030614512 0.13211638 0.09984526 -0.47422278 0.08123406 0.5649208 -0.22536132 -0.08773933 -0.13839011 -0.36275575 -0.04045025 0.0807119 0.028569084 -0.1861263 0.027771382 -0.25277632 -0.092632905 -0.569062 0.038312312 0.051700283 0.06363291 -0.18956959 -0.114184044 -0.010054184 -0.2899075 -0.24857241 -0.2132 0.042937838 0.31671768 0.114692844 0.14057082 -0.08053591 -0.2186978 0.29364288 -0.040371962 -0.33400068 -0.10143367 -0.52438444 0.05010531 -0.239217 -0.047491185 0.060735952 0.18685463 -0.13855799 -0.18999605 -0.011729749 0.1721687 0.087393336 0.2113102 -0.2360585 0.037546348 -0.11209379 -0.11109612 0.1198051 0.13146599 0.005455961 -0.322374 0.11403631 -0.008148673 0.062105358 -0.15315336 -0.061289657 -0.36748347 0.19502153 0.15978678 0.20596837 -0.4043535 0.20398691 -0.17087562 -0.014267394 0.2150219 -0.029181415 0.26021197 0.008574152 -0.009495699 -0.16827519 -0.20462228 0.13700116 -0.10491446 -0.03372076 -0.2847351 0.4000432 0.036116075 0.034973606 0.117061965 0.2813887 0.3489623 0.063389175 0.33788168 0.17232662 0.024059108 0.122362606 0.39273578 0.24409932 0.10834357 -0.23222822 0.072245054 -0.08875115
정도 -0.037145253 0.23990285 0.0314384 0.13395394 0.09721917 -0.4771298 0.071232304 0.5729273 -0.22847867 -0.10117654 -0.14141867 -0.3798337 -0.033313207 0.09796647 0.03233197 -0.1748077 0.021689415 -0.25184083 -0.08352772 -0.5824186 0.035638772 0.051164396 0.05790029 -0.18674493 -0.11566823 -0.012505754 -0.29793233 -0.24524494 -0.20946777 0.040134903 0.30362254 0.1258625 0.14596026 -0.08569631 -0.22665961 0.29255053 -0.035424683 -0.3348724 -0.11556872 -0.518068 0.045101505 -0.23218673 -0.064949624 0.06835653 0.18790121 -0.14318246 -0.18117014 -0.014494461 0.16629477 0.08127548 0.21555117 -0.23944353 0.038395688 -0.113460675 -0.09512102 0.114488386 0.13106817 -0.003675634 -0.31862992 0.11428696 -0.018284231 0.061631963 -0.14984895 -0.056358527 -0.38199422 0.18772268 0.16699208 0.20623276 -0.3884228 0.19869603 -0.15224878 -0.027360734 0.22277932 -0.018402021 0.2506036 0.007270723 -0.004608331 -0.1752062 -0.20945506 0.14313559 -0.10364912 -0.033683613 -0.2687874 0.39593968 0.047540467 0.04708538 0.1188353 0.2938077 0.36002526 0.077571996 0.3526657 0.18315072 0.019433785 0.13095923 0.40149236 0.2614878 0.102012165 -0.23277499 0.07777314 -0.078020394
말 -0.042783756 0.24848454 0.046138834 0.15131564 0.090575136 -0.46848065 0.08213947 0.5649688 -0.2344211 -0.103667684 -0.14781328 -0.36714387 -0.0284306 0.08073774 0.029407317 -0.18122716 0.023944685 -0.26133737 -0.08481683 -0.5702887 0.03335944 0.06942472 0.05161487 -0.18289079 -0.10534111 -0.0036280977 -0.30436268 -0.24388766 -0.22014892 0.042694844 0.29939216 0.124760486 0.12771189 -0.07961675 -0.2338126 0.3040139 -0.040324356 -0.33261153 -0.10028512 -0.5293283 0.046414685 -0.24001062 -0.061689116 0.05843673 0.19385232 -0.142772 -0.17710108 -0.030441431 0.17590925 0.07889081 0.20562565 -0.24476174 0.026112994 -0.12549743 -0.10455188 0.10849052 0.11814352 -0.004635423 -0.32185596 0.10881203 -0.0057479483 0.06888079 -0.1478554 -0.06547571 -0.38174114 0.18790998 0.1585222 0.2119249 -0.38714415 0.20680958 -0.15421994 -0.009638308 0.2215981 -0.022842309 0.2626041 0.017695088 -0.018986499 -0.17526114 -0.20249656 0.14408685 -0.08743725 -0.05259984 -0.28058043 0.40554637 0.03861292 0.027084762 0.116713844 0.28432938 0.34944978 0.06473833 0.34823176 0.18405288 0.03115657 0.13035181 0.40305033 0.25648963 0.10515198 -0.22173162 0.0687176 -0.087065294
받다 -0.030828595 0.28486678 0.0393541 0.14975795 0.11300315 -0.5276089 0.07904402 0.6399251 -0.25767866 -0.10211427 -0.16608089 -0.40573695 -0.028481893 0.108892895 0.04790246 -0.21296932 0.025593387 -0.2896004 -0.09458931 -0.6298767 0.052895878 0.07032479 0.07190645 -0.1944402 -0.1285379 -0.012922987 -0.3361631 -0.26383415 -0.24637964 0.056881573 0.3481774 0.12669007 0.16145375 -0.09189015 -0.25156075 0.3418876 -0.038888857 -0.36504388 -0.12927872 -0.5705214 0.04058428 -0.25797945 -0.056214787 0.074044675 0.20049587 -0.14507301 -0.2045107 -0.017373981 0.19052488 0.08555549 0.23602891 -0.27768034 0.03267025 -0.14505595 -0.108773686 0.12417992 0.13717826 0.010033237 -0.36618298 0.11521939 -0.010799499 0.06760959 -0.17360505 -0.06009189 -0.41626024 0.2142806 0.19184446 0.22571665 -0.4468267 0.238795 -0.178923 -0.01994038 0.24313396 -0.036896154 0.2868931 0.016124398 -0.00766024 -0.18843979 -0.22611672 0.16498336 -0.115870014 -0.050106328 -0.31837678 0.44392255 0.046361256 0.043667093 0.12801653 0.32399777 0.39809185 0.07803638 0.39345568 0.19488971 0.02510803 0.13018912 0.4290873 0.2730945 0.12709706 -0.25125265 0.081924394 -0.10170844
면 -0.03524543 0.21335392 0.024584433 0.124818705 0.085427426 -0.3890406 0.05531232 0.47928917 -0.20462383 -0.070218414 -0.12918368 -0.31620625 -0.022412807 0.076437004 0.03438206 -0.16019958 0.023187554 -0.22698551 -0.07030676 -0.4860779 0.029654829 0.04947754 0.048780672 -0.15217236 -0.098417446 -0.013521021 -0.25989816 -0.21381596 -0.19105454 0.037372228 0.26804858 0.09915814 0.107625455 -0.07636092 -0.18853419 0.24874763 -0.032091733 -0.28107056 -0.08375582 -0.44681215 0.030741293 -0.19353098 -0.053388633 0.058206305 0.1584396 -0.10724681 -0.14891894 -0.015504066 0.14917989 0.07099657 0.1800598 -0.20659491 0.03424655 -0.096494734 -0.07578262 0.0930608 0.10261704 0.01091138 -0.28416273 0.09245186 -0.017133355 0.059550367 -0.14122154 -0.048761718 -0.30466667 0.15509796 0.13296843 0.16505328 -0.33002543 0.16824652 -0.12955819 -0.016532507 0.19064212 -0.024352351 0.20762442 0.008292169 -0.008343856 -0.14536406 -0.16273168 0.11831042 -0.0868052 -0.0348051 -0.23876771 0.32603785 0.02779677 0.029189685 0.09601341 0.24863626 0.30676702 0.06701199 0.29959807 0.14961527 0.01698032 0.11195971 0.33115482 0.21770617 0.09245052 -0.18728875 0.071798965 -0.07693212
개발자 -0.035859667 0.236472 0.041373722 0.1262856 0.09437096 -0.44417524 0.07134123 0.5366494 -0.23304407 -0.08307615 -0.15056048 -0.36317047 -0.027054528 0.077862814 0.030280681 -0.1781631 0.018742502 -0.25302795 -0.081956655 -0.54686046 0.043730535 0.055332255 0.0640924 -0.18010235 -0.10410908 -0.00944986 -0.2822988 -0.24010125 -0.20862934 0.040139765 0.2885723 0.12408638 0.1328879 -0.078016706 -0.22286654 0.28966197 -0.042141337 -0.31557125 -0.10868741 -0.5020695 0.045216877 -0.23094465 -0.050171763 0.067481905 0.17178814 -0.13326138 -0.17600322 -0.02949618 0.15535192 0.07920881 0.20518224 -0.22954664 0.028794227 -0.11289338 -0.09475584 0.096124195 0.12407682 0.012696941 -0.31974247 0.10476508 -0.0059087086 0.058789883 -0.14977086 -0.06407894 -0.3488719 0.1849149 0.16234173 0.19107656 -0.37888822 0.19241072 -0.16373855 -0.009140108 0.20528719 -0.02843216 0.2490412 0.0067518377 -0.0037837885 -0.16583657 -0.19692655 0.14265145 -0.09549261 -0.04432959 -0.27085772 0.3729203 0.035176568 0.031111822 0.117602274 0.28599784 0.33745727 0.06637694 0.3250941 0.17661576 0.020666294 0.12209907 0.38479513 0.24682027 0.10552987 -0.21285926 0.08132252 -0.08225332
앞 -0.02783566 0.21126552 0.038988177 0.11637435 0.07961649 -0.39431256 0.052402608 0.46266314 -0.20025082 -0.07735063 -0.12622909 -0.30788925 -0.018685432 0.085506454 0.03652039 -0.14997914 0.015804803 -0.20907032 -0.07708598 -0.48292506 0.04184911 0.039911844 0.052817944 -0.15203248 -0.1011329 -0.004549132 -0.2528691 -0.19236803 -0.1848738 0.031743374 0.25894034 0.10311261 0.11774579 -0.06635475 -0.1916224 0.24096215 -0.027866034 -0.26075795 -0.093953095 -0.43098325 0.0392644 -0.18933582 -0.051460985 0.050093457 0.15139876 -0.11192419 -0.1435817 -0.011832819 0.13419864 0.07404555 0.17115228 -0.20210567 0.02038928 -0.1061588 -0.07429 0.095087335 0.09315845 0.0070243916 -0.27643222 0.08154013 -0.0058336616 0.055106103 -0.12762025 -0.041675627 -0.30049148 0.14907996 0.14087011 0.17166728 -0.32361206 0.17800996 -0.1400243 -0.01730782 0.18045904 -0.01716627 0.20876826 0.022756476 -0.0142967515 -0.14641017 -0.17276764 0.1149355 -0.07004471 -0.04036579 -0.23315616 0.3340176 0.025332967 0.032387313 0.09932054 0.23137926 0.2925751 0.056183927 0.29264706 0.14068781 0.01577881 0.11095301 0.3195364 0.21570732 0.08325177 -0.18142396 0.061312366 -0.075495794
로봇 -0.037169218 0.24562997 0.03866857 0.1407555 0.0874431 -0.47633567 0.072125636 0.57704735 -0.2304068 -0.095690094 -0.15378556 -0.36690196 -0.042213332 0.09259687 0.03825566 -0.1871321 0.017721219 -0.26684847 -0.09983816 -0.56908023 0.045881372 0.05858909 0.06997631 -0.18867907 -0.11500942 -0.0050037256 -0.30723676 -0.25426713 -0.20930998 0.045938756 0.30094898 0.12853493 0.13133396 -0.08733348 -0.22671938 0.29528585 -0.044057894 -0.3333625 -0.11762967 -0.52095926 0.040657092 -0.23938231 -0.05289222 0.06399607 0.1969989 -0.13150433 -0.18224229 -0.021683374 0.17540054 0.088087305 0.22095568 -0.2437057 0.033589173 -0.1248405 -0.102014534 0.104142986 0.12194642 -0.004583329 -0.32705426 0.1125969 -0.008196687 0.06221938 -0.14995085 -0.070140384 -0.36356246 0.18762605 0.17021647 0.21013893 -0.3960361 0.20899862 -0.16090755 -0.027192902 0.21385427 -0.030821951 0.24558917 0.021299923 -0.0052455436 -0.16822821 -0.19461022 0.14324439 -0.0972558 -0.037033524 -0.28686535 0.39062876 0.04732874 0.029880192 0.122798465 0.29718348 0.3471335 0.08094973 0.35579225 0.1711709 0.018295625 0.11241197 0.39930576 0.26062614 0.109207034 -0.22905432 0.070495576 -0.08737927
많이 -0.027277082 0.22709823 0.02814888 0.1366288 0.08026704 -0.45496023 0.077508315 0.54857856 -0.23318423 -0.08197255 -0.13187714 -0.35052317 -0.036332328 0.096413165 0.025241468 -0.17986092 0.023293255 -0.2519183 -0.096573 -0.5443397 0.04815112 0.050931673 0.052651666 -0.16698994 -0.1093415 -0.013440128 -0.27792442 -0.23651555 -0.20202102 0.050505042 0.3013741 0.122405626 0.13737209 -0.088950604 -0.21599476 0.28297946 -0.033746395 -0.30147707 -0.09665173 -0.5047459 0.053228147 -0.22724396 -0.051510073 0.068917066 0.17199346 -0.13290259 -0.1713122 -0.013038427 0.16991045 0.07501284 0.19274111 -0.23500493 0.04247377 -0.12610865 -0.08623501 0.10602564 0.116799176 0.014718601 -0.30148494 0.11395945 -0.0022325246 0.052178085 -0.1416808 -0.067597084 -0.36259422 0.16931057 0.16228877 0.20433412 -0.38309455 0.19330804 -0.15643969 -0.022174323 0.20552649 -0.021367583 0.2461984 0.013072688 -0.01409317 -0.16059805 -0.19535272 0.14135282 -0.08182434 -0.0329539 -0.27154553 0.3706456 0.02908224 0.028815433 0.11310427 0.2701148 0.34030858 0.0758855 0.33532384 0.16855982 0.035102043 0.12383465 0.3740699 0.23349512 0.10529192 -0.21097384 0.08170413 -0.08237831
늘다 -0.02020723 0.22321066 0.040424995 0.119680114 0.08788025 -0.4175019 0.05680323 0.5089078 -0.2185658 -0.09092993 -0.12924369 -0.32089368 -0.031786595 0.08777475 0.035986718 -0.15967691 0.013497302 -0.22271892 -0.08835754 -0.5155327 0.042945735 0.04436782 0.05854577 -0.16302049 -0.10272599 -0.011667849 -0.2715637 -0.2208863 -0.18323003 0.049982645 0.26262674 0.09948697 0.12557352 -0.08304411 -0.19611657 0.27209598 -0.041615058 -0.2815393 -0.08744543 -0.46394673 0.04259209 -0.21730235 -0.042715922 0.06729145 0.17009725 -0.13227576 -0.15648371 -0.021702839 0.1515808 0.07825242 0.18927874 -0.21016856 0.025362289 -0.10288699 -0.09399769 0.098213844 0.11591578 0.008280144 -0.28203484 0.094219096 -0.0073616197 0.065139435 -0.14257649 -0.04874941 -0.34041587 0.17469548 0.15292223 0.18848287 -0.34621587 0.18767361 -0.14702237 -0.022066548 0.19054359 -0.02356463 0.22265697 0.0059771333 -0.016278366 -0.13963597 -0.16889969 0.13471656 -0.089455314 -0.03739534 -0.25489995 0.35806525 0.036135245 0.03980249 0.095904395 0.2549725 0.3176323 0.06647941 0.30303687 0.1497142 0.02600461 0.098984286 0.35585922 0.22998834 0.09569358 -0.20895882 0.061078735 -0.07472294
게 -0.027582403 0.24552257 0.03180824 0.15019138 0.08385254 -0.46001658 0.08154603 0.5630763 -0.24290864 -0.088339254 -0.1546919 -0.37482083 -0.022217022 0.081846714 0.026805492 -0.18840154 0.025336245 -0.25373402 -0.09522465 -0.57217246 0.050351303 0.068094246 0.0685965 -0.17703913 -0.11029111 -0.0035238294 -0.29363865 -0.2374772 -0.211757 0.0488081 0.3008501 0.11279234 0.14405264 -0.08865899 -0.22277708 0.29572356 -0.039049286 -0.33024073 -0.10327734 -0.52160287 0.037432298 -0.23918706 -0.04940571 0.073116474 0.18375494 -0.13004865 -0.1883719 -0.024850802 0.1636092 0.07373265 0.21753994 -0.24914199 0.026165176 -0.13095744 -0.092315875 0.10744921 0.12336919 -0.0013626962 -0.32629168 0.10997103 -0.014652355 0.05729009 -0.16155376 -0.058828432 -0.37921724 0.18608247 0.16426565 0.21243909 -0.39183366 0.21017501 -0.16751105 -0.025601381 0.22123839 -0.027261415 0.24627574 0.014506568 -0.001133085 -0.17457023 -0.20296802 0.14395753 -0.095859006 -0.03205239 -0.27640262 0.38472256 0.031992298 0.02612942 0.10512461 0.2815205 0.34612146 0.06869644 0.34377843 0.17119518 0.029427482 0.1256137 0.39959934 0.24476312 0.1157596 -0.2199902 0.07405812 -0.089132205
알다 -0.038912393 0.25242797 0.048568223 0.15771696 0.10607935 -0.499867 0.08297734 0.5971749 -0.24068221 -0.10778715 -0.1548945 -0.39530045 -0.043698452 0.09776631 0.046468128 -0.18650147 0.016270716 -0.26635274 -0.09835381 -0.59008265 0.034830112 0.07148329 0.055652898 -0.19476348 -0.11898388 -0.0051425137 -0.32035807 -0.25625068 -0.22614467 0.045892473 0.32706237 0.12837584 0.15135396 -0.07965344 -0.2440837 0.31714815 -0.03240831 -0.33647066 -0.10667801 -0.5480965 0.05141654 -0.24803865 -0.057236057 0.06309757 0.19707195 -0.13878483 -0.19922234 -0.0127922185 0.18390849 0.084601395 0.21661378 -0.2513631 0.04305061 -0.12223109 -0.112655684 0.123618044 0.12732641 -0.003061139 -0.33229885 0.12040032 -0.008878313 0.07605107 -0.17035289 -0.071285 -0.39056444 0.19044574 0.17433062 0.2139362 -0.42176962 0.21725485 -0.16613816 -0.019737532 0.23126751 -0.028575128 0.27100557 0.016046371 -0.0026853222 -0.17516246 -0.20674418 0.14717507 -0.094453566 -0.04209794 -0.28890935 0.42228267 0.034084383 0.04845431 0.11987587 0.3007767 0.36642057 0.0645701 0.36074972 0.1874979 0.035439026 0.13660191 0.4016632 0.27285233 0.10794813 -0.23540987 0.08963467 -0.089244016
명 -0.046232294 0.26411515 0.044722393 0.1546455 0.092093505 -0.5112975 0.08437996 0.6261225 -0.25450307 -0.10065666 -0.17169486 -0.4014651 -0.03152224 0.09108242 0.036412228 -0.20234478 0.023985721 -0.28245467 -0.106274925 -0.6270582 0.05169902 0.063251995 0.06630786 -0.19499348 -0.13056728 -0.01347725 -0.31684488 -0.27784592 -0.23870333 0.05244892 0.32792744 0.13353635 0.15818883 -0.093387045 -0.24088283 0.3269094 -0.04510263 -0.36024484 -0.118106715 -0.5627234 0.057293065 -0.2541602 -0.06604798 0.0656737 0.21144713 -0.1496583 -0.1930166 -0.022837158 0.19812347 0.078234956 0.24185252 -0.27403545 0.036865022 -0.12739894 -0.12167149 0.12609349 0.12700398 -0.0018197523 -0.35535946 0.12219524 -0.016378442 0.08091503 -0.17766745 -0.067465685 -0.3996233 0.20677367 0.1767972 0.22869144 -0.43893516 0.22561252 -0.17303988 -0.0125311045 0.24490604 -0.03571214 0.28791183 0.013805327 -0.0035750507 -0.19022824 -0.22875053 0.15725628 -0.11387947 -0.050996173 -0.30436003 0.4333206 0.033387274 0.03374512 0.1169527 0.31647277 0.39316761 0.07727523 0.39137128 0.18824153 0.03824825 0.13958749 0.44002208 0.2761965 0.12194335 -0.24843757 0.075088255 -0.08045256
문제 -0.03797689 0.2642255 0.043045875 0.14964542 0.09498893 -0.4956292 0.07957022 0.5882478 -0.25359863 -0.10219576 -0.155948 -0.3894693 -0.030388342 0.09593113 0.039934665 -0.19777936 0.016523777 -0.26073003 -0.08599778 -0.5875845 0.047300816 0.05311467 0.06983258 -0.19237906 -0.1270875 0.0027057093 -0.31112403 -0.26260418 -0.22616525 0.056932468 0.314738 0.12831323 0.14264587 -0.08231416 -0.23372924 0.29886344 -0.04017149 -0.32913804 -0.10968388 -0.5434993 0.0539957 -0.23823321 -0.049203575 0.068804905 0.18417886 -0.14601482 -0.18278271 -0.0277422 0.18980895 0.073992185 0.2096896 -0.25458702 0.04251865 -0.13313402 -0.09662808 0.10456524 0.13064696 0.007927203 -0.33784208 0.12333684 -0.0071065146 0.06717323 -0.1562619 -0.058072213 -0.38213193 0.2022267 0.17213775 0.20359133 -0.41309002 0.21116343 -0.17413196 -0.019889846 0.23162073 -0.033982754 0.26701796 0.022468844 -0.012222028 -0.17074974 -0.20209524 0.14314273 -0.095385484 -0.03538887 -0.28990033 0.40141243 0.032328464 0.02907086 0.12172507 0.30502445 0.37340793 0.07179325 0.3594587 0.18582606 0.017889332 0.11595693 0.41197896 0.251861 0.11211541 -0.24046925 0.08740071 -0.08849912
쓰다 -0.024470394 0.25224552 0.035124373 0.13961934 0.096555196 -0.4812454 0.08407791 0.58372843 -0.23455933 -0.10348579 -0.15558279 -0.37624112 -0.034117028 0.08581201 0.043438405 -0.18063311 0.018238556 -0.2583337 -0.086749844 -0.5789666 0.05137629 0.05870062 0.053113054 -0.18297374 -0.12552312 0.004952144 -0.3115542 -0.24992174 -0.22089349 0.05426352 0.31608775 0.11269082 0.13351262 -0.08403012 -0.22697724 0.30779818 -0.037856176 -0.33366925 -0.117212206 -0.5227862 0.038039755 -0.23832874 -0.059308544 0.060190376 0.19655435 -0.14059797 -0.1935101 -0.030767372 0.17626198 0.073961616 0.21761031 -0.24038641 0.03950446 -0.12900397 -0.095411785 0.10318351 0.13187219 0.004149009 -0.33234373 0.11622333 -0.014501379 0.061778504 -0.16074745 -0.069405295 -0.37862727 0.1838689 0.1756872 0.19887139 -0.40665212 0.19986366 -0.17410067 -0.01908584 0.21183051 -0.03488788 0.26063386 0.016001917 -0.0070810183 -0.15995724 -0.21448246 0.15355808 -0.106121644 -0.036712136 -0.27436438 0.41067046 0.032448467 0.040828064 0.10750852 0.29337624 0.35474187 0.06357572 0.35841534 0.18474446 0.023077222 0.11521136 0.4037988 0.25234243 0.10477763 -0.23776114 0.077133074 -0.07480093
회사 -0.043391667 0.2744941 0.049685046 0.14731224 0.09887927 -0.5072425 0.08397184 0.6095548 -0.25594443 -0.11091035 -0.15320559 -0.40979356 -0.0449405 0.09846201 0.03998069 -0.1984864 0.024294805 -0.27380165 -0.095422365 -0.6094884 0.041225977 0.056729816 0.055444658 -0.18567184 -0.12195296 -0.010766162 -0.3140806 -0.2541635 -0.22378665 0.04604464 0.32494503 0.12677836 0.14058924 -0.085219294 -0.23908709 0.31508145 -0.030546283 -0.36042804 -0.10981605 -0.5639966 0.05073687 -0.2596228 -0.055690113 0.079485014 0.19901064 -0.15407111 -0.20429273 -0.018341262 0.19054353 0.09391887 0.22261323 -0.26923707 0.045014225 -0.13513854 -0.10483332 0.12742744 0.12823504 0.0071475394 -0.35445932 0.11228949 -0.01823357 0.06966158 -0.17538293 -0.068347804 -0.40322122 0.20728414 0.18273057 0.22750354 -0.42137557 0.21765737 -0.17857282 -0.009455938 0.2397505 -0.040511966 0.27818677 0.026835646 -0.0021660484 -0.18688765 -0.21829265 0.15644431 -0.10094518 -0.04739446 -0.30263594 0.43245038 0.050073806 0.03898158 0.11702799 0.3080052 0.37638578 0.08033592 0.37433037 0.18819208 0.019618923 0.129852 0.4299976 0.27841464 0.124248676 -0.24835828 0.09318431 -0.08806202
너무 -0.02847273 0.221799 0.028702578 0.13026474 0.09147455 -0.40403435 0.069075234 0.49639022 -0.20797046 -0.09081706 -0.12755477 -0.32334006 -0.035277188 0.08076039 0.035395715 -0.1680694 0.021778082 -0.21511534 -0.08730326 -0.49514318 0.027537996 0.043274667 0.0588309 -0.16378376 -0.10162964 -0.012270554 -0.2673412 -0.22035527 -0.1872748 0.04437301 0.25811848 0.09604018 0.11537051 -0.074654825 -0.2042226 0.25537533 -0.027928468 -0.2816698 -0.08609119 -0.4475345 0.03951443 -0.20460929 -0.038738716 0.060362663 0.16422263 -0.119377024 -0.16761613 -0.012297293 0.1556255 0.07014964 0.19299623 -0.21579827 0.034106497 -0.114076324 -0.09764678 0.098190956 0.11206468 0.009670273 -0.2929914 0.10056306 -0.007940406 0.061239876 -0.136134 -0.04816712 -0.31611776 0.15364066 0.13589674 0.18603243 -0.34484053 0.1690586 -0.14425252 -0.0141853485 0.19708167 -0.026260335 0.21955681 0.00803399 -0.017005356 -0.1434257 -0.17506632 0.11745724 -0.083031744 -0.046143685 -0.24346948 0.34783357 0.035398908 0.039851543 0.10611963 0.2508444 0.31363478 0.06769789 0.31107244 0.16287518 0.028506216 0.110868536 0.34887478 0.21765006 0.090645775 -0.19020629 0.06957724 -0.07677462
걱정 -0.03034215 0.20448396 0.042761967 0.12443826 0.08372472 -0.39153054 0.07350675 0.47507718 -0.2077229 -0.08421088 -0.13001084 -0.3268919 -0.02825446 0.06890375 0.040041886 -0.16060792 0.011133314 -0.22710168 -0.079997554 -0.49758136 0.035487637 0.055436853 0.0470401 -0.14426742 -0.099759735 -0.012114591 -0.25661364 -0.21095794 -0.19148472 0.03076159 0.25621247 0.09982988 0.12175349 -0.07794642 -0.19905928 0.25463542 -0.031631738 -0.27469414 -0.09268891 -0.43672997 0.046421375 -0.21132839 -0.04313697 0.06261552 0.15810102 -0.109868854 -0.15948284 -0.02291039 0.13948353 0.078867726 0.16961703 -0.20756976 0.029860867 -0.10861993 -0.075676076 0.08651601 0.09632701 0.0135089755 -0.28621542 0.10416741 -0.015541645 0.060442153 -0.1331364 -0.057359334 -0.32358342 0.15224761 0.14921574 0.18034056 -0.33541396 0.18175144 -0.1325632 -0.012011534 0.18677382 -0.03383788 0.22493827 0.005142794 -0.01205846 -0.1406125 -0.16490509 0.112970494 -0.08044675 -0.030513784 -0.24514171 0.34512836 0.028608846 0.04170305 0.09065485 0.25329262 0.31173602 0.050769135 0.29518142 0.14244634 0.031623363 0.113646 0.32750556 0.21554342 0.09290183 -0.20267168 0.067817904 -0.08093889
변호사 -0.02449065 0.18382241 0.036983 0.1172385 0.06942363 -0.3683684 0.048068006 0.44335076 -0.17963454 -0.06434733 -0.11137337 -0.2908347 -0.023550283 0.079793245 0.037298586 -0.13520455 0.0081275785 -0.20752484 -0.06324515 -0.4525477 0.03588404 0.054434508 0.042981524 -0.13214482 -0.09756043 0.0033226954 -0.22656366 -0.1861458 -0.17643137 0.04845699 0.24662219 0.09086802 0.10993811 -0.05753128 -0.17918225 0.2378118 -0.030761113 -0.25362355 -0.08395309 -0.4083232 0.034445725 -0.19297542 -0.039544236 0.06015424 0.1497909 -0.100108586 -0.14573316 -0.011012678 0.12723581 0.05754333 0.17443658 -0.1811229 0.021920422 -0.10132894 -0.07248017 0.08882793 0.1025528 -0.00269118 -0.2545903 0.08495661 -0.00966838 0.052721087 -0.12830366 -0.043459665 -0.2911035 0.15452814 0.1282148 0.16950145 -0.30808872 0.16518655 -0.13347176 -0.023627095 0.16823186 -0.024616746 0.20681794 0.018028624 -0.015148437 -0.12137762 -0.15541185 0.10249501 -0.06792677 -0.036668636 -0.22543894 0.31592634 0.03888188 0.03748146 0.08958089 0.23292896 0.2802931 0.04751611 0.27959394 0.13361396 0.010697471 0.103265494 0.29976246 0.20464398 0.07839207 -0.16792943 0.055046722 -0.060451016
세무사 -0.013808928 0.184886 0.026334858 0.09757384 0.058381364 -0.33885157 0.062612504 0.40822163 -0.16604346 -0.061933372 -0.11754085 -0.26981482 -0.03293651 0.061825994 0.027875537 -0.14243558 0.011343053 -0.19563866 -0.073730014 -0.42580023 0.04102197 0.05218474 0.04338912 -0.13256828 -0.07833835 -0.0014224797 -0.22696286 -0.18587919 -0.15577024 0.045636963 0.22680947 0.097276986 0.10583607 -0.06015933 -0.15724747 0.2271647 -0.016870666 -0.22833814 -0.087103896 -0.37560833 0.02489948 -0.18081021 -0.0482388 0.051939324 0.13559465 -0.10595797 -0.12625204 -0.0069292914 0.13109477 0.06639111 0.14994496 -0.18206385 0.030768976 -0.0924378 -0.082187064 0.08505733 0.08612393 -0.0010345997 -0.23580936 0.088294655 -0.0019805655 0.04701309 -0.10502475 -0.04244252 -0.2632062 0.13620703 0.12406785 0.1569312 -0.29923362 0.15544562 -0.11622435 -0.007837868 0.1567889 -0.023298686 0.17895237 0.009742809 -0.011484206 -0.12690221 -0.14587739 0.11371965 -0.06404048 -0.04025805 -0.2101219 0.28475508 0.034161255 0.017381448 0.08963025 0.21479774 0.25525057 0.06071178 0.26167834 0.12945494 0.025810966 0.07934709 0.2777262 0.1806957 0.09149466 -0.1638948 0.06349011 -0.06807733
판사 -0.015166243 0.14007424 0.021673666 0.07756141 0.058003373 -0.27679175 0.047868352 0.326895 -0.13746858 -0.05792814 -0.09198738 -0.21851815 -0.023974529 0.05552476 0.015063653 -0.106019564 0.0032571065 -0.15007474 -0.05272806 -0.33492434 0.027071439 0.043841284 0.03817641 -0.10009264 -0.07052095 -0.003582024 -0.16751021 -0.13686877 -0.114743076 0.027078912 0.18272868 0.07526183 0.081152976 -0.040183242 -0.13500471 0.16592681 -0.01260873 -0.17715244 -0.05769967 -0.30035377 0.033585597 -0.1328797 -0.032168683 0.046801716 0.111713365 -0.073255785 -0.10327678 -0.02095796 0.096206926 0.049111445 0.114022054 -0.1295813 0.027875664 -0.079472065 -0.06308597 0.056662377 0.06881792 0.00081784645 -0.18866225 0.061345983 -0.0032642174 0.046330184 -0.0930959 -0.04317754 -0.2075572 0.09915394 0.102253534 0.12003226 -0.23272268 0.10976723 -0.101338364 -0.00817672 0.12585594 -0.012889655 0.1447341 0.010630768 -0.0032730123 -0.096347444 -0.12257983 0.08106162 -0.050929062 -0.027702816 -0.15977184 0.22324583 0.029804021 0.01732236 0.07493091 0.1613273 0.19083275 0.033309173 0.19388618 0.102413476 0.02078361 0.07167529 0.23308729 0.14447786 0.069532774 -0.13023154 0.042327337 -0.03990828
안되다 -0.031044282 0.24750054 0.029337995 0.12796742 0.08999425 -0.4533328 0.07011892 0.5447793 -0.23324367 -0.09899641 -0.13417324 -0.36239892 -0.034520693 0.08523468 0.032660753 -0.18754777 0.019277269 -0.24795438 -0.07879736 -0.5598781 0.03504364 0.05477736 0.059679534 -0.17929578 -0.11667654 -0.012373899 -0.2819269 -0.24490467 -0.2104902 0.04746266 0.29636654 0.104666755 0.13995306 -0.083131485 -0.21849833 0.27775005 -0.04244168 -0.3106789 -0.09864031 -0.49670506 0.049171884 -0.23608445 -0.053812698 0.061473932 0.17839532 -0.12830922 -0.17335887 -0.027733568 0.17116196 0.08527338 0.19693059 -0.22934365 0.029859284 -0.10908104 -0.09274003 0.10930546 0.11612293 -0.003927261 -0.3050032 0.10485396 -0.0034911511 0.06694685 -0.15933573 -0.060058918 -0.35505262 0.17681445 0.17182752 0.19382006 -0.38806581 0.20249528 -0.1588736 -0.024559252 0.21059594 -0.021789556 0.23831157 0.011941152 -0.017263537 -0.15770432 -0.1984552 0.14776973 -0.092348 -0.039664213 -0.2702575 0.38818568 0.037536632 0.026647627 0.10256391 0.27874088 0.3490921 0.07021334 0.32888156 0.16311093 0.015757613 0.12106642 0.36920348 0.2456691 0.10932862 -0.22104375 0.06472274 -0.073386535
신입 -0.034036368 0.24149765 0.03265389 0.15206613 0.0961298 -0.48490342 0.07618492 0.57950634 -0.24882534 -0.102987014 -0.1509596 -0.38728562 -0.032961987 0.093429 0.045013286 -0.18680058 0.023235619 -0.25571185 -0.095758684 -0.5732659 0.043212377 0.058972403 0.050291877 -0.18041745 -0.11122222 -0.001788333 -0.3107301 -0.2512869 -0.22445442 0.056875397 0.30362603 0.12677336 0.13328773 -0.0919688 -0.23809901 0.30555162 -0.044482008 -0.33700892 -0.115334265 -0.5310765 0.041900232 -0.23924287 -0.04883714 0.06650212 0.18344824 -0.13849427 -0.17834613 -0.026544102 0.17062946 0.08704084 0.21951462 -0.2523132 0.04413554 -0.13401966 -0.11006715 0.105970606 0.12647347 0.00483058 -0.32695076 0.11922064 -0.006633145 0.062041443 -0.1646204 -0.07131503 -0.37673965 0.19984731 0.16170563 0.21321048 -0.39618438 0.20410281 -0.17070925 -0.023957802 0.21495402 -0.035825904 0.26242515 0.009411637 -0.014317989 -0.16410038 -0.20350172 0.1383654 -0.10235856 -0.040847365 -0.2780108 0.39798275 0.040478572 0.039737675 0.117360465 0.2916622 0.36594513 0.063372076 0.35897174 0.16868882 0.025920708 0.13114424 0.39545327 0.26080474 0.11857111 -0.23892306 0.07962 -0.08820409
의사 -0.040779438 0.23033763 0.04426394 0.14139447 0.081537455 -0.44099605 0.0633624 0.53034276 -0.21714143 -0.09830489 -0.13583836 -0.35578257 -0.030419726 0.090225585 0.026470287 -0.17212372 0.018245121 -0.24949701 -0.08744155 -0.53132206 0.030471914 0.048338328 0.054719206 -0.15861377 -0.10642322 0.006253045 -0.28611726 -0.21888956 -0.20690654 0.039981823 0.27862796 0.11512014 0.12518421 -0.07037464 -0.21285762 0.28097388 -0.027603114 -0.31418654 -0.102946274 -0.4904992 0.034201227 -0.2190143 -0.04937023 0.05950746 0.1723234 -0.13547151 -0.1723984 -0.018120058 0.16940181 0.08282566 0.19359425 -0.2217837 0.029630825 -0.118357055 -0.09891927 0.09638003 0.11867086 -0.0039240895 -0.31304795 0.09838652 -0.0045408825 0.06267447 -0.13998112 -0.048964422 -0.353966 0.1694993 0.1643913 0.19702877 -0.36440247 0.20166191 -0.14184755 -0.019331612 0.20353122 -0.021184644 0.24652095 0.026317025 -0.018504705 -0.16047004 -0.18283565 0.13535881 -0.0899862 -0.03214802 -0.25202402 0.36217037 0.034491487 0.025534095 0.11375836 0.27478036 0.32797164 0.06880485 0.33255395 0.17374542 0.031657465 0.1170608 0.36785275 0.24423063 0.10426071 -0.21305239 0.06310781 -0.0734244
회계 -0.043494076 0.2593072 0.034972113 0.14276555 0.09651533 -0.48049244 0.067001104 0.5814097 -0.2476051 -0.105598584 -0.14758413 -0.38024506 -0.027603643 0.08448459 0.03643692 -0.18918617 0.028287014 -0.27169567 -0.08617366 -0.59353626 0.034938186 0.06139711 0.05752637 -0.18678199 -0.12286034 0.0004992183 -0.31370816 -0.24801096 -0.21552943 0.050964292 0.31213436 0.12962575 0.129743 -0.09476593 -0.2268506 0.3128253 -0.045398366 -0.3413489 -0.10983143 -0.53862274 0.048040338 -0.23295029 -0.06243573 0.061664872 0.19889809 -0.14171816 -0.1890158 -0.023806984 0.16768768 0.078097396 0.21055707 -0.24525712 0.037435435 -0.11633761 -0.09682862 0.111131474 0.114418514 0.0071153413 -0.33804175 0.12227612 -0.008188472 0.06585499 -0.15219834 -0.065831795 -0.38307288 0.18949756 0.17957035 0.2159552 -0.4009947 0.21369544 -0.1671248 -0.009157466 0.21319212 -0.03275724 0.25228044 0.027296664 -0.014434773 -0.1718195 -0.1970703 0.13725758 -0.10062202 -0.041177757 -0.28855106 0.41151598 0.04183403 0.03203348 0.121105954 0.3034017 0.36163026 0.07844921 0.34727746 0.17620859 0.038279735 0.13014321 0.40252417 0.25320125 0.11812783 -0.23055853 0.088305116 -0.083757445
내 -0.028761325 0.26643106 0.036756147 0.15460554 0.10620349 -0.51674694 0.088712335 0.61266875 -0.26839817 -0.09680403 -0.15590446 -0.41265568 -0.04004227 0.09656208 0.03772737 -0.19350179 0.024874523 -0.2838265 -0.102844015 -0.63180256 0.0366685 0.07166567 0.054820813 -0.20057803 -0.1336105 0.004561703 -0.3221425 -0.26862353 -0.23214264 0.05203361 0.3463297 0.1280305 0.15472636 -0.095922455 -0.23988505 0.33754677 -0.03300938 -0.35879987 -0.11972555 -0.5793244 0.05891275 -0.2698154 -0.06693578 0.0785039 0.20284627 -0.14423949 -0.20718569 -0.013403702 0.19247751 0.08014259 0.23518047 -0.27021217 0.045351423 -0.12678523 -0.12072635 0.12846515 0.14039521 0.011807476 -0.36574432 0.11473006 -0.021583488 0.076697506 -0.17557208 -0.063024566 -0.40340847 0.21254438 0.18699753 0.22443911 -0.4324078 0.22886196 -0.1863407 -0.025713837 0.23697403 -0.026012382 0.27775696 0.008698456 -0.01270351 -0.17539717 -0.21486187 0.16142523 -0.11069102 -0.05057841 -0.30702373 0.42762044 0.034715217 0.03938442 0.12739207 0.32247546 0.39251938 0.08647612 0.37474936 0.2032342 0.026572416 0.13497475 0.4278349 0.2723721 0.120612964 -0.25862393 0.095483825 -0.08546476
사라지다 -0.031393513 0.20985337 0.041362565 0.11323928 0.08211565 -0.39298865 0.06613234 0.4735898 -0.20737317 -0.073756285 -0.12582241 -0.3201942 -0.026804991 0.0700627 0.037753526 -0.16192189 0.01762053 -0.21664168 -0.079584785 -0.4846658 0.043075357 0.051177066 0.040094633 -0.15096278 -0.106544584 -0.0075789597 -0.24535817 -0.20179442 -0.18668905 0.043478474 0.2641848 0.09236847 0.11127035 -0.07196691 -0.20018072 0.2528463 -0.023345923 -0.27232647 -0.08819501 -0.43708974 0.037126396 -0.20659626 -0.04693972 0.06295918 0.15976168 -0.11567935 -0.14324102 -0.014279989 0.13744815 0.07509493 0.18756905 -0.21180555 0.03695006 -0.10971717 -0.08653733 0.09776508 0.09764122 -0.0043649925 -0.28135595 0.082505226 -0.01694937 0.0645543 -0.12776665 -0.062001556 -0.30459806 0.1640834 0.14876626 0.18214418 -0.34067786 0.17012052 -0.1332947 -0.012325931 0.18702161 -0.03152116 0.21759258 0.023727927 -0.018290214 -0.1311165 -0.16551603 0.11696247 -0.08190509 -0.044416655 -0.23992586 0.3373409 0.030565059 0.041105233 0.08717931 0.2358064 0.30440885 0.06763876 0.29520267 0.15592554 0.029422231 0.09715628 0.33888292 0.20476413 0.090026475 -0.19782892 0.07213754 -0.074058026
거 -0.031928785 0.24772361 0.038509242 0.1364291 0.088287465 -0.47538298 0.07626373 0.5703918 -0.24044855 -0.09261526 -0.15450875 -0.36417088 -0.03362509 0.084116004 0.033319 -0.17803267 0.021508805 -0.26386783 -0.099430144 -0.5832446 0.039100092 0.06738691 0.052131664 -0.17920692 -0.11553182 -0.0004028444 -0.30827162 -0.23813675 -0.22000468 0.05525694 0.2990635 0.12580663 0.1292652 -0.087593466 -0.22978151 0.29627898 -0.037340745 -0.3291891 -0.102984615 -0.52500254 0.041564357 -0.2452459 -0.047036253 0.071515985 0.19712365 -0.13373928 -0.18720734 -0.011763253 0.16738631 0.08450016 0.20824982 -0.2423255 0.03955798 -0.12513743 -0.10628403 0.10947688 0.123858206 0.011122794 -0.33428878 0.116148114 -0.015447619 0.057339933 -0.1628932 -0.060461633 -0.3658534 0.19517113 0.17824452 0.21360935 -0.4009678 0.20429832 -0.15368702 -0.011527113 0.2245137 -0.021835692 0.2565961 0.019685987 -0.018983992 -0.15980302 -0.19282779 0.13721535 -0.09588984 -0.03393073 -0.2752742 0.40564382 0.048054166 0.034660194 0.12352664 0.29749492 0.3546046 0.071598664 0.35967678 0.18373136 0.020659814 0.118910395 0.39243355 0.25706998 0.11331606 -0.23917638 0.080866 -0.07368907
전 -0.03430874 0.26603222 0.044443198 0.15704156 0.107481636 -0.4918114 0.077484965 0.6009815 -0.25639084 -0.09199651 -0.16074575 -0.38235992 -0.045017127 0.092798084 0.04557145 -0.20004119 0.021410717 -0.26560378 -0.085925445 -0.6051432 0.03744508 0.07222003 0.053082004 -0.188116 -0.11634902 -0.0126680555 -0.3203204 -0.26803282 -0.22814964 0.05741917 0.31534988 0.12285043 0.15234555 -0.09220815 -0.23680942 0.31843123 -0.04173268 -0.3501099 -0.10485725 -0.5505089 0.056758564 -0.2539863 -0.05523062 0.076170675 0.19740728 -0.14146782 -0.19690509 -0.012462769 0.18168643 0.08091486 0.22795887 -0.24517664 0.03230838 -0.12717222 -0.103821345 0.11418767 0.13115849 0.013498803 -0.33630294 0.109190576 -0.016139776 0.07817332 -0.16439521 -0.07625996 -0.39344278 0.1899359 0.1778093 0.2174846 -0.42227033 0.21227069 -0.16147806 -0.013795434 0.23110016 -0.028009478 0.27556673 0.01264608 -0.0055054417 -0.17590229 -0.22076972 0.14266571 -0.103532344 -0.037033074 -0.29098848 0.40836838 0.042636752 0.03579244 0.11597662 0.31408486 0.38020384 0.075462684 0.36879897 0.18728815 0.018696714 0.13164867 0.4227114 0.26989594 0.12031518 -0.2454265 0.08576598 -0.09497196
업무 -0.029926008 0.2522563 0.040224575 0.14253718 0.09695991 -0.47035724 0.077437244 0.5790813 -0.23451155 -0.09446844 -0.15158375 -0.38074896 -0.042658977 0.087294735 0.039933704 -0.1781585 0.023161009 -0.26326334 -0.08727969 -0.5810223 0.041666016 0.06809583 0.06780679 -0.17995763 -0.12264481 -0.00043355493 -0.2898893 -0.23728599 -0.21890102 0.05792928 0.31731352 0.111017786 0.14631802 -0.08421869 -0.23403563 0.30393523 -0.026894731 -0.33634105 -0.10044148 -0.5297736 0.037594385 -0.23451497 -0.060379717 0.07252797 0.19534972 -0.12921205 -0.17698576 -0.029493341 0.17845796 0.07267159 0.21162939 -0.23315503 0.03077309 -0.11798628 -0.10883211 0.103268586 0.13178195 0.007882251 -0.32008138 0.114377886 -0.010564657 0.0695044 -0.16587044 -0.055549547 -0.37806493 0.19252044 0.16316165 0.20863873 -0.39325294 0.2046302 -0.17042673 -0.024276875 0.20832385 -0.019041598 0.24944943 0.016815832 -0.02047594 -0.17146085 -0.20597433 0.14752796 -0.09115173 -0.040363126 -0.26854074 0.3986456 0.050417885 0.045073774 0.11755462 0.29357848 0.3489556 0.06889629 0.3552167 0.16946408 0.029742308 0.11503543 0.4057468 0.25359717 0.11324702 -0.23488675 0.085117735 -0.09004968
미래 -0.038870495 0.22682187 0.032931913 0.12473749 0.08862909 -0.41216466 0.07317447 0.51031506 -0.20388544 -0.093270734 -0.12677652 -0.3211579 -0.03352529 0.081892595 0.027511794 -0.16797134 0.028084924 -0.22921877 -0.07710879 -0.51575536 0.04311961 0.04916462 0.048059136 -0.15733325 -0.09329802 -0.010289579 -0.26134753 -0.2185446 -0.19941998 0.039961465 0.26507705 0.112178035 0.1189839 -0.07995431 -0.20126377 0.26968932 -0.02287032 -0.30030182 -0.095963635 -0.46341592 0.03787531 -0.2129696 -0.040670652 0.057943024 0.17574748 -0.1229306 -0.16257286 -0.010874948 0.16102579 0.072574735 0.1871144 -0.2080363 0.027457222 -0.10301478 -0.09097659 0.092101716 0.11661612 -0.0002404294 -0.2879322 0.090450235 -0.008458151 0.063530475 -0.1338927 -0.06380167 -0.33726484 0.17303279 0.15193646 0.18398659 -0.35747907 0.18104185 -0.15318845 -0.014298103 0.18817094 -0.024196632 0.2297745 0.017841676 -0.016214192 -0.14663298 -0.18540931 0.12453516 -0.083748445 -0.029095193 -0.25247785 0.3541199 0.04342988 0.04276319 0.10730609 0.25114018 0.3187485 0.0726413 0.31264022 0.16034923 0.022270076 0.1116223 0.35349974 0.23310557 0.09504939 -0.21232785 0.07668942 -0.07944079
함 -0.031044938 0.22077812 0.034245174 0.12118089 0.084536076 -0.42521614 0.06832352 0.49683088 -0.21455377 -0.08022282 -0.12956914 -0.32592055 -0.02845725 0.070302226 0.04133445 -0.16709723 0.017573966 -0.2189601 -0.07977983 -0.50198877 0.03920938 0.054756463 0.05885093 -0.14856821 -0.10199958 -0.0071110562 -0.2581403 -0.22397882 -0.18165343 0.046352424 0.27640572 0.10835169 0.11912707 -0.07264378 -0.20534584 0.2723545 -0.026288461 -0.28493914 -0.09965015 -0.4670046 0.048115514 -0.20697924 -0.053328402 0.049583904 0.16037098 -0.120408 -0.16936238 -0.01774651 0.15570946 0.061373398 0.18589719 -0.21831031 0.02832447 -0.109103106 -0.09983257 0.09396301 0.10168177 -0.0028557742 -0.2862263 0.09988466 -0.0015876088 0.06619104 -0.1445286 -0.0636655 -0.31993055 0.16935994 0.15515883 0.17801794 -0.35367644 0.1772219 -0.15059352 -0.010133598 0.18727413 -0.016425466 0.21721803 0.024840053 -0.013531414 -0.1375689 -0.18309106 0.12010671 -0.07752093 -0.047712356 -0.2531343 0.35315922 0.024251169 0.037849657 0.103688434 0.24814959 0.31538826 0.06417368 0.31541088 0.15849082 0.019000389 0.10483977 0.3538271 0.21551102 0.10758423 -0.20502172 0.06458862 -0.076748155
돈 -0.032187715 0.24406846 0.04423526 0.13954726 0.10579918 -0.48419783 0.068593 0.5817717 -0.2307772 -0.09444156 -0.15337993 -0.3757089 -0.042975068 0.08849441 0.030859033 -0.18628581 0.015985489 -0.2705661 -0.09887221 -0.58005273 0.045772143 0.0694469 0.062490262 -0.17838135 -0.113269284 0.0006457187 -0.30967757 -0.24804209 -0.21949184 0.05630877 0.30682564 0.121399544 0.14299685 -0.0906943 -0.24099621 0.31039044 -0.038077563 -0.33321637 -0.1155617 -0.5214757 0.04728555 -0.24063222 -0.056556776 0.068581216 0.19623788 -0.15027282 -0.1833619 -0.026863534 0.18643872 0.08662458 0.20953517 -0.24763139 0.030184288 -0.11485218 -0.095243305 0.11565206 0.13525787 -0.00015227542 -0.33065957 0.10638919 -0.021546463 0.063091606 -0.16082308 -0.06910332 -0.38354653 0.19061068 0.17121847 0.20077713 -0.396613 0.21111572 -0.1740128 -0.019210218 0.21395627 -0.02104865 0.2580155 0.025028886 -0.0056746984 -0.17373116 -0.21448773 0.14164937 -0.08993627 -0.045246102 -0.2832006 0.40356416 0.032691214 0.04167455 0.10791998 0.3055102 0.35298425 0.07994402 0.35227016 0.1789392 0.0255782 0.12557551 0.4037116 0.25873467 0.11334916 -0.22590098 0.07333747 -0.0910898
뭐 -0.035759967 0.21103771 0.031257782 0.111460336 0.08291922 -0.3951388 0.06547096 0.47789925 -0.1880091 -0.081027664 -0.1203346 -0.3022012 -0.01696116 0.07252985 0.02987392 -0.15651904 0.014540922 -0.21163116 -0.07180299 -0.4791307 0.03908236 0.044198487 0.044338267 -0.1567951 -0.087165385 0.00032504002 -0.24842623 -0.19287156 -0.17618868 0.030656355 0.24492694 0.09463506 0.10556492 -0.061191104 -0.18271582 0.24880211 -0.030819466 -0.27818522 -0.082502834 -0.43480214 0.034306217 -0.20264822 -0.04751626 0.045793682 0.15747182 -0.12118507 -0.1433507 -0.024879718 0.13655658 0.06706695 0.16656332 -0.19382581 0.025044497 -0.10047263 -0.076120816 0.09507549 0.102023475 0.012192862 -0.26896057 0.09645261 -0.0036797142 0.045453314 -0.12705475 -0.061030913 -0.3088948 0.16293757 0.13616802 0.1647064 -0.3234008 0.1774261 -0.12684993 -0.021528376 0.18614587 -0.015884899 0.20396537 0.012570852 -0.009054925 -0.1466278 -0.16861586 0.12885518 -0.08215568 -0.042648166 -0.23284635 0.31698546 0.034687873 0.036730167 0.09407608 0.23604879 0.30269414 0.04889576 0.28208995 0.136094 0.032154515 0.09928318 0.31911728 0.20036593 0.10049774 -0.1918265 0.058544613 -0.06443952
합격 -0.038218338 0.23692466 0.04250703 0.12516707 0.082453646 -0.42896014 0.05904467 0.52284503 -0.21176536 -0.080330536 -0.14499697 -0.3420691 -0.03600504 0.089071296 0.04248467 -0.17104352 0.011926555 -0.22982639 -0.08368591 -0.52255493 0.03108892 0.052855946 0.051700134 -0.15734473 -0.11425309 -0.007916292 -0.27529475 -0.22762701 -0.19126385 0.04554694 0.27830487 0.10001258 0.11448158 -0.07413399 -0.21032506 0.26319164 -0.025419503 -0.29136774 -0.091074415 -0.478884 0.0413582 -0.20990466 -0.057048146 0.05439973 0.16277961 -0.122779965 -0.17538972 -0.01761154 0.1673097 0.075233474 0.18344823 -0.2130281 0.03910361 -0.120601736 -0.08694449 0.11028385 0.11888368 0.00069257064 -0.29293463 0.09653543 -0.018709026 0.062851764 -0.14864112 -0.058730025 -0.34547955 0.16457535 0.15177295 0.18929292 -0.36137992 0.19626294 -0.14390726 -0.02715583 0.18938914 -0.027705917 0.22882262 0.00853026 -0.0015376454 -0.14805141 -0.1918039 0.13838707 -0.089978136 -0.047271673 -0.25437513 0.3684069 0.031046456 0.03021961 0.10228708 0.27019408 0.33138448 0.057203047 0.30999956 0.16065642 0.028121939 0.11522122 0.36427078 0.23061292 0.10052306 -0.20533167 0.07216712 -0.07042226
필요하다 -0.03216474 0.24700972 0.03414105 0.1386885 0.093356326 -0.45835322 0.08137214 0.549779 -0.22173072 -0.092546426 -0.13318467 -0.3527034 -0.032620512 0.09101024 0.038817108 -0.16947508 0.022663165 -0.24469063 -0.089682296 -0.5564648 0.031647846 0.05496239 0.054341853 -0.16950543 -0.11088442 -0.0028121995 -0.28146678 -0.24101643 -0.19996983 0.05466716 0.3007103 0.11646016 0.13068815 -0.07868424 -0.22627963 0.2805677 -0.032020662 -0.31518626 -0.09915967 -0.504056 0.048686888 -0.23200877 -0.04631354 0.061212245 0.17589194 -0.12990999 -0.17490025 -0.02286558 0.16296968 0.086153515 0.19352104 -0.22671373 0.030737055 -0.10723668 -0.094364084 0.10823077 0.11464551 0.0028496687 -0.31835827 0.10386447 -0.005382072 0.05318436 -0.14673153 -0.05497484 -0.34962317 0.17513822 0.16661774 0.18760462 -0.37876797 0.20671235 -0.15144889 -0.022643128 0.20462136 -0.035024982 0.24318622 0.021171313 -0.017343208 -0.15379645 -0.19748886 0.14456883 -0.08690691 -0.039466765 -0.26747018 0.369766 0.0324389 0.036005817 0.09935752 0.28744495 0.34357077 0.06775044 0.34304157 0.16591707 0.027251692 0.11796996 0.38618976 0.2451016 0.10382275 -0.22443528 0.06712173 -0.07348763
일자리 -0.0357893 0.30862424 0.054939613 0.16224904 0.12404639 -0.57891476 0.09273876 0.6889217 -0.27954176 -0.12442395 -0.17743638 -0.45887557 -0.03991146 0.11813285 0.033090837 -0.21429774 0.017756486 -0.30500385 -0.1189029 -0.7055186 0.04236639 0.07798704 0.069040544 -0.21725816 -0.14947854 0.0047758464 -0.3605175 -0.30219784 -0.26568106 0.06905669 0.37645966 0.13630179 0.16986059 -0.10751482 -0.2749905 0.37191 -0.04536754 -0.39821607 -0.124515064 -0.6382984 0.058801465 -0.2849248 -0.07620711 0.076665886 0.23564473 -0.1668162 -0.21167529 -0.02685894 0.21950538 0.08957358 0.2614587 -0.30282447 0.045166206 -0.13888621 -0.12655894 0.14326376 0.14068478 0.005035593 -0.39302415 0.12931451 -0.006563166 0.07108116 -0.19097902 -0.06693824 -0.4449488 0.226964 0.21435714 0.23987354 -0.48391628 0.25281495 -0.1987807 -0.015907437 0.27171314 -0.038004283 0.30597827 0.030600024 -0.019109905 -0.21167582 -0.24554239 0.16705362 -0.11679975 -0.04982757 -0.34518307 0.48087335 0.04357995 0.042310305 0.1404049 0.3564812 0.42833355 0.09481942 0.42378587 0.22257851 0.03622948 0.15270613 0.48846233 0.3025654 0.13569252 -0.2823879 0.10004426 -0.106455855
지 -0.035734907 0.24967268 0.03601278 0.14172761 0.09153603 -0.45557284 0.07319224 0.5426474 -0.22095804 -0.085836336 -0.15441926 -0.36904415 -0.029836867 0.08846119 0.031194873 -0.17107035 0.012660198 -0.2527705 -0.081776015 -0.5599327 0.03452947 0.06647747 0.06345073 -0.17905039 -0.11942312 -0.0052912286 -0.28244776 -0.24095897 -0.20484063 0.046478186 0.3029551 0.11545778 0.1389765 -0.07196178 -0.23025344 0.29739544 -0.042666517 -0.32809615 -0.0990164 -0.5041487 0.049579192 -0.24120788 -0.045519367 0.05591864 0.1754965 -0.13392778 -0.18141943 -0.017578237 0.16395113 0.07230593 0.21082659 -0.23711519 0.041086014 -0.12106471 -0.0996677 0.11261381 0.12624504 0.0027106346 -0.32842395 0.10550842 -0.0047028256 0.07050558 -0.15796956 -0.056537185 -0.35347474 0.17348441 0.16379468 0.2005617 -0.39106438 0.19479276 -0.1516185 -0.022057353 0.20570834 -0.02526754 0.2565573 0.023649648 -0.015609879 -0.16462563 -0.18694298 0.14099249 -0.0989003 -0.049824197 -0.2756928 0.39088055 0.041093178 0.029375518 0.11746733 0.28059897 0.3450481 0.06450408 0.34199545 0.17272533 0.028720466 0.114755414 0.38074195 0.24483801 0.10428228 -0.22464553 0.08430094 -0.07729918
만들다 -0.030363178 0.26221725 0.04409863 0.14840558 0.106855914 -0.48410913 0.069467366 0.59867793 -0.25075695 -0.0995052 -0.16395119 -0.3966223 -0.037977923 0.1000097 0.03802208 -0.19319405 0.017008284 -0.26182738 -0.085706264 -0.5902619 0.042499088 0.05301167 0.06962872 -0.18854848 -0.11741884 0.00059876294 -0.30137518 -0.255518 -0.22950912 0.050667048 0.32183048 0.1251138 0.14031988 -0.07708694 -0.23489705 0.3054608 -0.028015517 -0.3481898 -0.11505564 -0.53631496 0.040655505 -0.24074723 -0.06319015 0.06009288 0.18534853 -0.14127776 -0.18254824 -0.014647741 0.18275511 0.08894487 0.219839 -0.25812164 0.046591524 -0.1337608 -0.09900403 0.11399375 0.12641232 0.0019582403 -0.33116147 0.10836309 -0.010560975 0.06859597 -0.16148913 -0.07069068 -0.39566916 0.18492906 0.17073433 0.21365057 -0.4182226 0.2238777 -0.16547038 -0.025609732 0.21996638 -0.03618 0.25587997 0.017817842 -0.012552297 -0.1637705 -0.20508146 0.14969708 -0.091019586 -0.050742693 -0.29765138 0.41351563 0.035305962 0.034813423 0.12116762 0.2943723 0.36667717 0.07620893 0.36342868 0.18276335 0.026367884 0.13645199 0.41337532 0.26099235 0.11055549 -0.24512784 0.07877891 -0.088885635
좋다 -0.04291677 0.23680711 0.03341045 0.13122937 0.088077046 -0.45030102 0.0789282 0.5465631 -0.2165348 -0.0851863 -0.1374701 -0.35338676 -0.026853258 0.08665634 0.041912653 -0.1846398 0.022601213 -0.24206117 -0.07694664 -0.5545333 0.049632512 0.061591703 0.0497783 -0.16266139 -0.11454292 0.003202778 -0.2951568 -0.2385229 -0.20185716 0.04707624 0.28680566 0.11357531 0.12291212 -0.07514012 -0.20929508 0.2839291 -0.029008131 -0.3158747 -0.09899721 -0.4962451 0.03479917 -0.22675875 -0.057886787 0.070994996 0.17304935 -0.123620756 -0.17398466 -0.012075173 0.17157425 0.08756651 0.20119841 -0.22905456 0.035880897 -0.11811869 -0.0993511 0.110397846 0.12659419 0.012024439 -0.30976942 0.11004811 -0.012672147 0.06425896 -0.15330566 -0.06672796 -0.36399233 0.18248159 0.15420943 0.20507348 -0.38410404 0.19572575 -0.16207762 -0.00948538 0.21338648 -0.025124662 0.24191424 0.011606822 -0.01634159 -0.14866766 -0.20108016 0.1428386 -0.08861114 -0.030910162 -0.26263562 0.3812258 0.04232184 0.039946944 0.09945787 0.27279672 0.34012052 0.068951786 0.3374851 0.16752982 0.02384216 0.12063092 0.37981904 0.25024748 0.11506746 -0.21767847 0.07622266 -0.08886509
뿐 -0.023096131 0.20266443 0.03702323 0.11834893 0.087419055 -0.3846112 0.07280716 0.47343734 -0.2028196 -0.08503877 -0.13146287 -0.30795807 -0.019505145 0.082902424 0.027387828 -0.15341318 0.011374974 -0.2068879 -0.07008912 -0.477373 0.044545468 0.040237434 0.04005066 -0.13910984 -0.09103241 -0.013264147 -0.24089004 -0.20761882 -0.17776161 0.04481262 0.24508335 0.10611919 0.108847514 -0.0757878 -0.18286254 0.2555881 -0.021230666 -0.2683601 -0.08768944 -0.44115892 0.036178097 -0.19914941 -0.042316288 0.06314977 0.16362755 -0.11598177 -0.15689799 -0.010189152 0.1533948 0.061830014 0.17915285 -0.1939703 0.028683906 -0.09716393 -0.09197712 0.08262834 0.096044034 -0.004166596 -0.28004488 0.09742317 -0.015189516 0.06145034 -0.1288298 -0.05368211 -0.3189497 0.15098988 0.14278315 0.1811386 -0.33187348 0.17804934 -0.13823888 -0.00535502 0.17972696 -0.030609349 0.21495028 0.01475116 -0.0012115275 -0.14675474 -0.16454639 0.12345575 -0.071811765 -0.038297113 -0.23438641 0.3200877 0.03784357 0.024096718 0.10139962 0.24974293 0.3017838 0.06621476 0.28440562 0.15582195 0.01497898 0.109821625 0.3243273 0.21036786 0.09187257 -0.1903672 0.07286139 -0.06683048
모든 -0.038149085 0.21426651 0.037703745 0.113313824 0.08462427 -0.39601836 0.06854183 0.4739711 -0.1923273 -0.07350731 -0.12744737 -0.3213341 -0.028139506 0.07890926 0.021963919 -0.16387273 0.019620903 -0.21593359 -0.080445886 -0.48850816 0.044350572 0.05870767 0.040925585 -0.1584679 -0.09707927 -0.0074672084 -0.25145352 -0.21151294 -0.18955651 0.037002694 0.26246163 0.104241155 0.106474295 -0.07895597 -0.1978016 0.25370768 -0.038753062 -0.27457732 -0.0813272 -0.44619784 0.033795547 -0.19118756 -0.038911887 0.05531458 0.15237345 -0.12547575 -0.15711708 -0.016300565 0.15365809 0.06541158 0.18701696 -0.21092784 0.03505877 -0.09663878 -0.090288654 0.101324946 0.09681957 0.0086162845 -0.28474525 0.09176083 -0.012719331 0.06143075 -0.12727004 -0.061509576 -0.31536576 0.15117753 0.13365975 0.1740923 -0.32475907 0.16662712 -0.12691987 -0.011916368 0.17538403 -0.023989314 0.21573465 0.020614816 -0.009362323 -0.1292858 -0.17368934 0.11261387 -0.088846736 -0.030723393 -0.23848136 0.32368293 0.027439889 0.0316016 0.10457191 0.24094966 0.3023246 0.059375424 0.3014654 0.15415047 0.0151855545 0.09265258 0.32730734 0.21488698 0.09887066 -0.18497613 0.07039939 -0.061728053
요 -0.025118584 0.20882063 0.038164314 0.122517966 0.08054982 -0.40396506 0.05521308 0.47170755 -0.20571452 -0.07068517 -0.13430129 -0.3239839 -0.024726313 0.08541961 0.036672976 -0.16108757 0.024678752 -0.21666828 -0.0805238 -0.49050367 0.03351374 0.04174263 0.0511238 -0.14374536 -0.10065312 -0.00063129823 -0.24691367 -0.19922742 -0.19008668 0.044321284 0.2574083 0.105498135 0.11337457 -0.077811524 -0.19274947 0.24167068 -0.02159509 -0.28530443 -0.09124913 -0.43197513 0.03283633 -0.21152337 -0.051027894 0.048179325 0.1652071 -0.12459657 -0.15828134 -0.026389232 0.15698515 0.06546843 0.17205821 -0.20105408 0.03118936 -0.094384804 -0.087441735 0.086719245 0.09815657 -0.0049556685 -0.26554537 0.1024893 -0.0078504 0.047625784 -0.13409273 -0.047886282 -0.32060102 0.16593882 0.1477336 0.17215694 -0.34001788 0.18345766 -0.13604209 -0.018719794 0.1861787 -0.030483598 0.20501366 0.02081735 -0.008578047 -0.13718906 -0.1597107 0.11744225 -0.086856276 -0.045517415 -0.22563072 0.3302921 0.04038202 0.032974172 0.08804105 0.24671008 0.30945143 0.05479754 0.29427636 0.14839679 0.029410813 0.1008381 0.3277383 0.20510457 0.09027914 -0.1908362 0.06512216 -0.06908874
서 -0.024375096 0.25100362 0.046368968 0.14552842 0.09740414 -0.46389914 0.073802195 0.56271756 -0.23920849 -0.09017631 -0.1503279 -0.35809708 -0.0262597 0.08443878 0.036380358 -0.18558371 0.011281773 -0.25342548 -0.088475466 -0.5718397 0.04288222 0.05977158 0.049062237 -0.17859975 -0.11472316 0.00048106982 -0.28765425 -0.23386745 -0.21073025 0.040489778 0.30251464 0.12820567 0.14458692 -0.07610572 -0.22052899 0.2987586 -0.039762624 -0.32790175 -0.10614843 -0.5159739 0.05028938 -0.22652371 -0.05458223 0.05628993 0.17946121 -0.14390722 -0.18712577 -0.017935578 0.17382757 0.074415594 0.20001945 -0.23720014 0.035818506 -0.11988726 -0.09161546 0.10710411 0.11120218 0.011279075 -0.31320816 0.10301538 -0.0039080367 0.06887848 -0.15607555 -0.062799826 -0.36016947 0.19159496 0.17443524 0.19498543 -0.38784662 0.19732398 -0.16809331 -0.021596162 0.20968091 -0.034161847 0.25283977 0.012628592 -0.009607555 -0.16552413 -0.19560856 0.14736772 -0.08530939 -0.03801103 -0.27665028 0.39516774 0.04395711 0.037428368 0.122983955 0.2806779 0.3544144 0.06206458 0.34612614 0.18361998 0.018759334 0.1223515 0.39308175 0.24218805 0.10216686 -0.22955675 0.080552384 -0.07960861
